{"learner":{"attributes":{"scikit_learn":"{\"_estimator_type\": \"regressor\"}"},"feature_names":["unit_price"],"feature_types":["float"],"gradient_booster":{"model":{"gbtree_model_param":{"num_parallel_tree":"1","num_trees":"100"},"iteration_indptr":[0,1,2,3,4,5,6,7,8,9,10,11,12,13,14,15,16,17,18,19,20,21,22,23,24,25,26,27,28,29,30,31,32,33,34,35,36,37,38,39,40,41,42,43,44,45,46,47,48,49,50,51,52,53,54,55,56,57,58,59,60,61,62,63,64,65,66,67,68,69,70,71,72,73,74,75,76,77,78,79,80,81,82,83,84,85,86,87,88,89,90,91,92,93,94,95,96,97,98,99,100],"tree_info":[0,0,0,0,0,0,0,0,0,0,0,0,0,0,0,0,0,0,0,0,0,0,0,0,0,0,0,0,0,0,0,0,0,0,0,0,0,0,0,0,0,0,0,0,0,0,0,0,0,0,0,0,0,0,0,0,0,0,0,0,0,0,0,0,0,0,0,0,0,0,0,0,0,0,0,0,0,0,0,0,0,0,0,0,0,0,0,0,0,0,0,0,0,0,0,0,0,0,0,0],"trees":[{"base_weights":[-1.243923E-7,7.4622917E0,-4.3895836E0,-2.5310186E-1,1.7188602E1,-9.3599147E-1,-8.743334E0,1.247647E0,4.4503474E-1,-2.1836739E-2,-1.6443752E-1,-4.563663E-1,-1.6250007E-2],"categories":[],"categories_nodes":[],"categories_segments":[],"categories_sizes":[],"default_left":[0,0,0,0,0,0,0,0,0,0,0,0,0],"id":0,"left_children":[1,3,5,-1,7,9,11,-1,-1,-1,-1,-1,-1],"loss_changes":[5.306529E3,7.3959404E3,1.5254963E3,0E0,1.9658066E3,6.669225E1,1.4249927E2,0E0,0E0,0E0,0E0,0E0,0E0],"parents":[2147483647,0,0,1,1,2,2,4,4,5,5,6,6],"right_children":[2,4,6,-1,8,10,12,-1,-1,-1,-1,-1,-1],"split_conditions":[5.697778E1,5.0357143E1,9.95E1,-2.5310186E-1,5.39E1,9.665667E1,1.8399E2,1.247647E0,4.4503474E-1,-2.1836739E-2,-1.6443752E-1,-4.563663E-1,-1.6250007E-2],"split_indices":[0,0,0,0,0,0,0,0,0,0,0,0,0],"split_type":[0,0,0,0,0,0,0,0,0,0,0,0,0],"sum_hessian":[1.6E2,5.9E1,1.01E2,2.6E1,3.3E1,5.7E1,4.4E1,1.6E1,1.7E1,4.8E1,9E0,4.2E1,2E0],"tree_param":{"num_deleted":"0","num_feature":"1","num_nodes":"13","size_leaf_vector":"1"}},{"base_weights":[4.848824E-3,7.11317E0,-4.176564E0,-2.4091546E-1,1.6378958E1,-8.92404E-1,-8.316669E0,1.1889342E0,4.240192E-1,-2.0767212E-2,-1.5703784E-1,-4.8598576E-1,-2.717011E-1],"categories":[],"categories_nodes":[],"categories_segments":[],"categories_sizes":[],"default_left":[0,0,0,0,0,0,0,0,0,0,0,0,0],"id":1,"left_children":[1,3,5,-1,7,9,11,-1,-1,-1,-1,-1,-1],"loss_changes":[4.8150835E3,6.7121924E3,1.3794484E3,0E0,1.7855557E3,6.090622E1,1.2918506E2,0E0,0E0,0E0,0E0,0E0,0E0],"parents":[2147483647,0,0,1,1,2,2,4,4,5,5,6,6],"right_children":[2,4,6,-1,8,10,12,-1,-1,-1,-1,-1,-1],"split_conditions":[5.697778E1,5.0357143E1,9.95E1,-2.4091546E-1,5.39E1,9.665667E1,1.23331665E2,1.1889342E0,4.240192E-1,-2.0767212E-2,-1.5703784E-1,-4.8598576E-1,-2.717011E-1],"split_indices":[0,0,0,0,0,0,0,0,0,0,0,0,0],"split_type":[0,0,0,0,0,0,0,0,0,0,0,0,0],"sum_hessian":[1.6E2,5.9E1,1.01E2,2.6E1,3.3E1,5.7E1,4.4E1,1.6E1,1.7E1,4.8E1,9E0,2.8E1,1.6E1],"tree_param":{"num_deleted":"0","num_feature":"1","num_nodes":"13","size_leaf_vector":"1"}},{"base_weights":[7.3178215E-3,6.780379E0,-3.9769075E0,-2.2931583E-1,1.560745E1,-8.5084945E-1,-7.917673E0,1.1329845E0,4.0399608E-1,-1.9750042E-2,-1.4997113E-1,-4.138328E-1,-6.651656E-3],"categories":[],"categories_nodes":[],"categories_segments":[],"categories_sizes":[],"default_left":[0,0,0,0,0,0,0,0,0,0,0,0,0],"id":2,"left_children":[1,3,5,-1,7,9,11,-1,-1,-1,-1,-1,-1],"loss_changes":[4.3716143E3,6.091658E3,1.2498076E3,0E0,1.621832E3,5.562182E1,1.24653564E2,0E0,0E0,0E0,0E0,0E0,0E0],"parents":[2147483647,0,0,1,1,2,2,4,4,5,5,6,6],"right_children":[2,4,6,-1,8,10,12,-1,-1,-1,-1,-1,-1],"split_conditions":[5.697778E1,5.0357143E1,9.95E1,-2.2931583E-1,5.39E1,9.665667E1,1.8399E2,1.1329845E0,4.0399608E-1,-1.9750042E-2,-1.4997113E-1,-4.138328E-1,-6.651656E-3],"split_indices":[0,0,0,0,0,0,0,0,0,0,0,0,0],"split_type":[0,0,0,0,0,0,0,0,0,0,0,0,0],"sum_hessian":[1.6E2,5.9E1,1.01E2,2.6E1,3.3E1,5.7E1,4.4E1,1.6E1,1.7E1,4.8E1,9E0,4.2E1,2E0],"tree_param":{"num_deleted":"0","num_feature":"1","num_nodes":"13","size_leaf_vector":"1"}},{"base_weights":[1.14079295E-2,6.4631543E0,-3.7838488E0,-2.1827471E-1,1.4872282E1,-8.1123364E-1,-7.5311337E0,1.0796674E0,3.849185E-1,-1.8782718E-2,-1.4322244E-1,-4.4254628E-1,-2.4183588E-1],"categories":[],"categories_nodes":[],"categories_segments":[],"categories_sizes":[],"default_left":[0,0,0,0,0,0,0,0,0,0,0,0,0],"id":3,"left_children":[1,3,5,-1,7,9,11,-1,-1,-1,-1,-1,-1],"loss_changes":[3.9667068E3,5.528494E3,1.1300928E3,0E0,1.4731221E3,5.079556E1,1.1721362E2,0E0,0E0,0E0,0E0,0E0,0E0],"parents":[2147483647,0,0,1,1,2,2,4,4,5,5,6,6],"right_children":[2,4,6,-1,8,10,12,-1,-1,-1,-1,-1,-1],"split_conditions":[5.697778E1,5.0357143E1,9.95E1,-2.1827471E-1,5.39E1,9.665667E1,1.23331665E2,1.0796674E0,3.849185E-1,-1.8782718E-2,-1.4322244E-1,-4.4254628E-1,-2.4183588E-1],"split_indices":[0,0,0,0,0,0,0,0,0,0,0,0,0],"split_type":[0,0,0,0,0,0,0,0,0,0,0,0,0],"sum_hessian":[1.6E2,5.9E1,1.01E2,2.6E1,3.3E1,5.7E1,4.4E1,1.6E1,1.7E1,4.8E1,9E0,2.8E1,1.6E1],"tree_param":{"num_deleted":"0","num_feature":"1","num_nodes":"13","size_leaf_vector":"1"}},{"base_weights":[1.3321568E-2,6.1607685E0,-3.6029544E0,-2.0776515E-1,1.4171744E1,-7.734651E-1,-7.169786E0,1.0288596E0,3.667418E-1,-1.7862748E-2,-1.3677742E-1,-3.75277E-1,1.6312599E-3],"categories":[],"categories_nodes":[],"categories_segments":[],"categories_sizes":[],"default_left":[0,0,0,0,0,0,0,0,0,0,0,0,0],"id":4,"left_children":[1,3,5,-1,7,9,11,-1,-1,-1,-1,-1,-1],"loss_changes":[3.6013662E3,5.017396E3,1.0238701E3,0E0,1.3380474E3,4.638776E1,1.0906592E2,0E0,0E0,0E0,0E0,0E0,0E0],"parents":[2147483647,0,0,1,1,2,2,4,4,5,5,6,6],"right_children":[2,4,6,-1,8,10,12,-1,-1,-1,-1,-1,-1],"split_conditions":[5.697778E1,5.0357143E1,9.95E1,-2.0776515E-1,5.39E1,9.665667E1,1.8399E2,1.0288596E0,3.667418E-1,-1.7862748E-2,-1.3677742E-1,-3.75277E-1,1.6312599E-3],"split_indices":[0,0,0,0,0,0,0,0,0,0,0,0,0],"split_type":[0,0,0,0,0,0,0,0,0,0,0,0,0],"sum_hessian":[1.6E2,5.9E1,1.01E2,2.6E1,3.3E1,5.7E1,4.4E1,1.6E1,1.7E1,4.8E1,9E0,4.2E1,2E0],"tree_param":{"num_deleted":"0","num_feature":"1","num_nodes":"13","size_leaf_vector":"1"}},{"base_weights":[1.6751882E-2,5.8725276E0,-3.4279864E0,-1.9776164E-1,1.3504204E1,-7.3745835E-1,-6.8196006E0,9.8044264E-1,3.494235E-1,-1.6987858E-2,-1.3062242E-1,-4.0306517E-1,-2.1501242E-1],"categories":[],"categories_nodes":[],"categories_segments":[],"categories_sizes":[],"default_left":[0,0,0,0,0,0,0,0,0,0,0,0,0],"id":5,"left_children":[1,3,5,-1,7,9,11,-1,-1,-1,-1,-1,-1],"loss_changes":[3.2677607E3,4.5535493E3,9.257446E2,0E0,1.2153574E3,4.2362167E1,1.0610718E2,0E0,0E0,0E0,0E0,0E0,0E0],"parents":[2147483647,0,0,1,1,2,2,4,4,5,5,6,6],"right_children":[2,4,6,-1,8,10,12,-1,-1,-1,-1,-1,-1],"split_conditions":[5.697778E1,5.0357143E1,9.95E1,-1.9776164E-1,5.39E1,9.665667E1,1.23331665E2,9.8044264E-1,3.494235E-1,-1.6987858E-2,-1.3062242E-1,-4.0306517E-1,-2.1501242E-1],"split_indices":[0,0,0,0,0,0,0,0,0,0,0,0,0],"split_type":[0,0,0,0,0,0,0,0,0,0,0,0,0],"sum_hessian":[1.6E2,5.9E1,1.01E2,2.6E1,3.3E1,5.7E1,4.4E1,1.6E1,1.7E1,4.8E1,9E0,2.8E1,1.6E1],"tree_param":{"num_deleted":"0","num_feature":"1","num_nodes":"13","size_leaf_vector":"1"}},{"base_weights":[1.81902E-2,5.5977697E0,-3.2640936E0,-1.8823978E-1,1.2868108E1,-7.031303E-1,-6.492356E0,9.3430424E-1,3.3292288E-1,-1.6155798E-2,-1.2474438E-1,-3.8360688E-1,-2.0489417E-1],"categories":[],"categories_nodes":[],"categories_segments":[],"categories_sizes":[],"default_left":[0,0,0,0,0,0,0,0,0,0,0,0,0],"id":6,"left_children":[1,3,5,-1,7,9,11,-1,-1,-1,-1,-1,-1],"loss_changes":[2.9667876E3,4.1325864E3,8.387162E2,0E0,1.1039185E3,3.8685688E1,9.568335E1,0E0,0E0,0E0,0E0,0E0,0E0],"parents":[2147483647,0,0,1,1,2,2,4,4,5,5,6,6],"right_children":[2,4,6,-1,8,10,12,-1,-1,-1,-1,-1,-1],"split_conditions":[5.697778E1,5.0357143E1,9.95E1,-1.8823978E-1,5.39E1,9.665667E1,1.23331665E2,9.3430424E-1,3.3292288E-1,-1.6155798E-2,-1.2474438E-1,-3.8360688E-1,-2.0489417E-1],"split_indices":[0,0,0,0,0,0,0,0,0,0,0,0,0],"split_type":[0,0,0,0,0,0,0,0,0,0,0,0,0],"sum_hessian":[1.6E2,5.9E1,1.01E2,2.6E1,3.3E1,5.7E1,4.4E1,1.6E1,1.7E1,4.8E1,9E0,2.8E1,1.6E1],"tree_param":{"num_deleted":"0","num_feature":"1","num_nodes":"13","size_leaf_vector":"1"}},{"base_weights":[1.945213E-2,5.3358645E0,-3.1080399E0,-1.7917638E-1,1.2261973E1,-6.704029E-1,-6.1808157E0,8.9033693E-1,3.1720155E-1,-1.536448E-2,-1.1913087E-1,-3.2450134E-1,1.5573757E-2],"categories":[],"categories_nodes":[],"categories_segments":[],"categories_sizes":[],"default_left":[0,0,0,0,0,0,0,0,0,0,0,0,0],"id":7,"left_children":[1,3,5,-1,7,9,11,-1,-1,-1,-1,-1,-1],"loss_changes":[2.693537E3,3.750542E3,7.5986804E2,0E0,1.0026958E3,3.5328064E1,9.23584E1,0E0,0E0,0E0,0E0,0E0,0E0],"parents":[2147483647,0,0,1,1,2,2,4,4,5,5,6,6],"right_children":[2,4,6,-1,8,10,12,-1,-1,-1,-1,-1,-1],"split_conditions":[5.697778E1,5.0357143E1,9.95E1,-1.7917638E-1,5.39E1,9.665667E1,1.8399E2,8.9033693E-1,3.1720155E-1,-1.536448E-2,-1.1913087E-1,-3.2450134E-1,1.5573757E-2],"split_indices":[0,0,0,0,0,0,0,0,0,0,0,0,0],"split_type":[0,0,0,0,0,0,0,0,0,0,0,0,0],"sum_hessian":[1.6E2,5.9E1,1.01E2,2.6E1,3.3E1,5.7E1,4.4E1,1.6E1,1.7E1,4.8E1,9E0,4.2E1,2E0],"tree_param":{"num_deleted":"0","num_feature":"1","num_nodes":"13","size_leaf_vector":"1"}},{"base_weights":[2.2112597E-2,5.0862103E0,-2.9569852E0,-1.6879824E0,1.3428297E1,-6.3920134E-1,-5.87864E0,-1.7054936E-1,2.1690784E-1,1.2688195E0,3.0222258E-1,-1.4611919E-2,-1.13769986E-1,-3.4942237E-1,-1.819819E-1],"categories":[],"categories_nodes":[],"categories_segments":[],"categories_sizes":[],"default_left":[0,0,0,0,0,0,0,0,0,0,0,0,0,0,0],"id":8,"left_children":[1,3,5,7,9,11,13,-1,-1,-1,-1,-1,-1,-1,-1],"loss_changes":[2.443957E3,3.413321E3,6.869623E2,3.6782166E2,2.2286304E3,3.226165E1,8.63833E1,0E0,0E0,0E0,0E0,0E0,0E0,0E0,0E0],"parents":[2147483647,0,0,1,1,2,2,3,3,4,4,5,5,6,6],"right_children":[2,4,6,8,10,12,14,-1,-1,-1,-1,-1,-1,-1,-1],"split_conditions":[5.697778E1,5.2406944E1,9.95E1,5.0357143E1,5.39E1,9.665667E1,1.23331665E2,-1.7054936E-1,2.1690784E-1,1.2688195E0,3.0222258E-1,-1.4611919E-2,-1.13769986E-1,-3.4942237E-1,-1.819819E-1],"split_indices":[0,0,0,0,0,0,0,0,0,0,0,0,0,0,0],"split_type":[0,0,0,0,0,0,0,0,0,0,0,0,0,0,0],"sum_hessian":[1.6E2,5.9E1,1.01E2,3.3E1,2.6E1,5.7E1,4.4E1,2.6E1,7E0,9E0,1.7E1,4.8E1,9E0,2.8E1,1.6E1],"tree_param":{"num_deleted":"0","num_feature":"1","num_nodes":"15","size_leaf_vector":"1"}},{"base_weights":[2.6954882E-2,4.858856E0,-2.8156044E0,-1.6022197E0,1.2815068E1,-6.0945475E-1,-5.596517E0,-1.6233772E-1,2.0741811E-1,1.2117226E0,2.8795096E-1,-3.3409384E-3,-7.8117296E-2,-2.9431456E-1,2.1120708E-2],"categories":[],"categories_nodes":[],"categories_segments":[],"categories_sizes":[],"default_left":[0,0,0,0,0,0,0,0,0,0,0,0,0,0,0],"id":9,"left_children":[1,3,5,7,9,11,13,-1,-1,-1,-1,-1,-1,-1,-1],"loss_changes":[2.2250103E3,3.104874E3,6.2237036E2,3.350078E2,2.0359785E3,2.9885843E1,8.097217E1,0E0,0E0,0E0,0E0,0E0,0E0,0E0,0E0],"parents":[2147483647,0,0,1,1,2,2,3,3,4,4,5,5,6,6],"right_children":[2,4,6,8,10,12,14,-1,-1,-1,-1,-1,-1,-1,-1],"split_conditions":[5.697778E1,5.2406944E1,9.95E1,5.0357143E1,5.39E1,6.99E1,1.8399E2,-1.6233772E-1,2.0741811E-1,1.2117226E0,2.8795096E-1,-3.3409384E-3,-7.8117296E-2,-2.9431456E-1,2.1120708E-2],"split_indices":[0,0,0,0,0,0,0,0,0,0,0,0,0,0,0],"split_type":[0,0,0,0,0,0,0,0,0,0,0,0,0,0,0],"sum_hessian":[1.6E2,5.9E1,1.01E2,3.3E1,2.6E1,5.7E1,4.4E1,2.6E1,7E0,9E0,1.7E1,3.7E1,2E1,4.2E1,2E0],"tree_param":{"num_deleted":"0","num_feature":"1","num_nodes":"15","size_leaf_vector":"1"}},{"base_weights":[3.2998998E-2,4.6416593E0,-2.678301E0,-1.5207833E0,1.2229859E1,-5.803865E-1,-5.3227625E0,-1.9389708E-2,-4.9606267E-1,1.1571951E0,2.743533E-1,-1.2893269E-2,-1.05135076E-1,-3.183454E-1,-1.6142346E-1],"categories":[],"categories_nodes":[],"categories_segments":[],"categories_sizes":[],"default_left":[0,0,0,0,0,0,0,0,0,0,0,0,0,0,0],"id":10,"left_children":[1,3,5,7,9,11,13,-1,-1,-1,-1,-1,-1,-1,-1],"loss_changes":[2.0242012E3,2.8243096E3,5.6279193E2,3.197524E2,1.859968E3,2.7934551E1,7.7848145E1,0E0,0E0,0E0,0E0,0E0,0E0,0E0,0E0],"parents":[2147483647,0,0,1,1,2,2,3,3,4,4,5,5,6,6],"right_children":[2,4,6,8,10,12,14,-1,-1,-1,-1,-1,-1,-1,-1],"split_conditions":[5.697778E1,5.2406944E1,9.95E1,5.1233334E1,5.39E1,9.665667E1,1.23331665E2,-1.9389708E-2,-4.9606267E-1,1.1571951E0,2.743533E-1,-1.2893269E-2,-1.05135076E-1,-3.183454E-1,-1.6142346E-1],"split_indices":[0,0,0,0,0,0,0,0,0,0,0,0,0,0,0],"split_type":[0,0,0,0,0,0,0,0,0,0,0,0,0,0,0],"sum_hessian":[1.6E2,5.9E1,1.01E2,3.3E1,2.6E1,5.7E1,4.4E1,3E1,3E0,9E0,1.7E1,4.8E1,9E0,2.8E1,1.6E1],"tree_param":{"num_deleted":"0","num_feature":"1","num_nodes":"15","size_leaf_vector":"1"}},{"base_weights":[3.332617E-2,4.4248447E0,-2.5502467E0,-3.0717578E0,1.0247887E1,-5.534018E-1,-5.067286E0,-1.3819222E-1,-2.3068905E-1,7.480146E-1,2.6139772E-1,-2.550572E-3,-7.180684E-2,-2.6694852E-1,2.5797462E-2],"categories":[],"categories_nodes":[],"categories_segments":[],"categories_sizes":[],"default_left":[0,0,0,0,0,0,0,0,0,0,0,0,0,0,0],"id":11,"left_children":[1,3,5,7,9,11,13,-1,-1,-1,-1,-1,-1,-1,-1],"loss_changes":[1.8379596E3,2.6506606E3,5.0986176E2,6.806946E-2,7.260906E2,2.5648436E1,7.101404E1,0E0,0E0,0E0,0E0,0E0,0E0,0E0,0E0],"parents":[2147483647,0,0,1,1,2,2,3,3,4,4,5,5,6,6],"right_children":[2,4,6,8,10,12,14,-1,-1,-1,-1,-1,-1,-1,-1],"split_conditions":[5.697778E1,5.0357143E1,9.95E1,4.991E1,5.39E1,6.99E1,1.8399E2,-1.3819222E-1,-2.3068905E-1,7.480146E-1,2.6139772E-1,-2.550572E-3,-7.180684E-2,-2.6694852E-1,2.5797462E-2],"split_indices":[0,0,0,0,0,0,0,0,0,0,0,0,0,0,0],"split_type":[0,0,0,0,0,0,0,0,0,0,0,0,0,0,0],"sum_hessian":[1.6E2,5.9E1,1.01E2,2.6E1,3.3E1,5.7E1,4.4E1,2.4E1,2E0,1.6E1,1.7E1,3.7E1,2E1,4.2E1,2E0],"tree_param":{"num_deleted":"0","num_feature":"1","num_nodes":"15","size_leaf_vector":"1"}},{"base_weights":[3.3678584E-2,4.214278E0,-2.4258277E0,-1.5027896E0,1.1257464E1,-5.27014E-1,-4.81928E0,-1.7183838E-2,-5.055108E-1,1.0714606E0,2.4905391E-1,-1.1359466E-2,-9.7172685E-2,-2.9008985E-1,-1.4298679E-1],"categories":[],"categories_nodes":[],"categories_segments":[],"categories_sizes":[],"default_left":[0,0,0,0,0,0,0,0,0,0,0,0,0,0,0],"id":12,"left_children":[1,3,5,7,9,11,13,-1,-1,-1,-1,-1,-1,-1,-1],"loss_changes":[1.6656589E3,2.4329E3,4.6102173E2,3.357426E2,1.6169885E3,2.4190117E1,7.004614E1,0E0,0E0,0E0,0E0,0E0,0E0,0E0,0E0],"parents":[2147483647,0,0,1,1,2,2,3,3,4,4,5,5,6,6],"right_children":[2,4,6,8,10,12,14,-1,-1,-1,-1,-1,-1,-1,-1],"split_conditions":[5.697778E1,5.2406944E1,9.95E1,5.1233334E1,5.39E1,9.665667E1,1.23331665E2,-1.7183838E-2,-5.055108E-1,1.0714606E0,2.4905391E-1,-1.1359466E-2,-9.7172685E-2,-2.9008985E-1,-1.4298679E-1],"split_indices":[0,0,0,0,0,0,0,0,0,0,0,0,0,0,0],"split_type":[0,0,0,0,0,0,0,0,0,0,0,0,0,0,0],"sum_hessian":[1.6E2,5.9E1,1.01E2,3.3E1,2.6E1,5.7E1,4.4E1,3E1,3E0,9E0,1.7E1,4.8E1,9E0,2.8E1,1.6E1],"tree_param":{"num_deleted":"0","num_feature":"1","num_nodes":"15","size_leaf_vector":"1"}},{"base_weights":[3.358585E-2,4.016861E0,-2.3098464E0,-2.9152844E0,9.403657E0,-5.0253487E-1,-4.58794E0,-1.3073416E-1,-2.2242661E-1,6.891143E-1,2.3729303E-1,-1.08031025E-2,-9.279992E-2,-2.7608553E-1,-1.3625799E-1],"categories":[],"categories_nodes":[],"categories_segments":[],"categories_sizes":[],"default_left":[0,0,0,0,0,0,0,0,0,0,0,0,0,0,0],"id":13,"left_children":[1,3,5,7,9,11,13,-1,-1,-1,-1,-1,-1,-1,-1],"loss_changes":[1.5121384E3,2.2679373E3,4.1765137E2,8.1269836E-1,6.2801294E2,2.2087355E1,6.322589E1,0E0,0E0,0E0,0E0,0E0,0E0,0E0,0E0],"parents":[2147483647,0,0,1,1,2,2,3,3,4,4,5,5,6,6],"right_children":[2,4,6,8,10,12,14,-1,-1,-1,-1,-1,-1,-1,-1],"split_conditions":[5.697778E1,5.0357143E1,9.95E1,4.991E1,5.39E1,9.665667E1,1.23331665E2,-1.3073416E-1,-2.2242661E-1,6.891143E-1,2.3729303E-1,-1.08031025E-2,-9.279992E-2,-2.7608553E-1,-1.3625799E-1],"split_indices":[0,0,0,0,0,0,0,0,0,0,0,0,0,0,0],"split_type":[0,0,0,0,0,0,0,0,0,0,0,0,0,0,0],"sum_hessian":[1.6E2,5.9E1,1.01E2,2.6E1,3.3E1,5.7E1,4.4E1,2.4E1,2E0,1.6E1,1.7E1,4.8E1,9E0,2.8E1,1.6E1],"tree_param":{"num_deleted":"0","num_feature":"1","num_nodes":"15","size_leaf_vector":"1"}},{"base_weights":[3.2262765E-2,3.8255725E0,-2.199412E0,-1.4795326E0,1.03643875E1,-4.7919425E-1,-4.3677063E0,-1.502005E-2,-5.12396E-1,9.922348E-1,2.2608753E-1,-1.3474678E-3,-6.373617E-2,-2.30932E-1,3.4245715E-2],"categories":[],"categories_nodes":[],"categories_segments":[],"categories_sizes":[],"default_left":[0,0,0,0,0,0,0,0,0,0,0,0,0,0,0],"id":14,"left_children":[1,3,5,7,9,11,13,-1,-1,-1,-1,-1,-1,-1,-1],"loss_changes":[1.3713489E3,2.0966804E3,3.7836078E2,3.4845026E2,1.4057971E3,2.083254E1,6.021765E1,0E0,0E0,0E0,0E0,0E0,0E0,0E0,0E0],"parents":[2147483647,0,0,1,1,2,2,3,3,4,4,5,5,6,6],"right_children":[2,4,6,8,10,12,14,-1,-1,-1,-1,-1,-1,-1,-1],"split_conditions":[5.697778E1,5.2406944E1,9.95E1,5.1233334E1,5.39E1,6.99E1,1.8399E2,-1.502005E-2,-5.12396E-1,9.922348E-1,2.2608753E-1,-1.3474678E-3,-6.373617E-2,-2.30932E-1,3.4245715E-2],"split_indices":[0,0,0,0,0,0,0,0,0,0,0,0,0,0,0],"split_type":[0,0,0,0,0,0,0,0,0,0,0,0,0,0,0],"sum_hessian":[1.6E2,5.9E1,1.01E2,3.3E1,2.6E1,5.7E1,4.4E1,3E1,3E0,9E0,1.7E1,3.7E1,2E1,4.2E1,2E0],"tree_param":{"num_deleted":"0","num_feature":"1","num_nodes":"15","size_leaf_vector":"1"}},{"base_weights":[3.331512E-2,3.645809E0,-2.0920079E0,-2.768136E0,8.632006E0,-4.5635659E-1,-4.1536913E0,-1.2373793E-1,-2.145117E-1,6.351182E-1,2.1541117E-1,-9.507678E-3,-8.575579E-2,-2.516088E-1,-1.2053831E-1],"categories":[],"categories_nodes":[],"categories_segments":[],"categories_sizes":[],"default_left":[0,0,0,0,0,0,0,0,0,0,0,0,0,0,0],"id":15,"left_children":[1,3,5,7,9,11,13,-1,-1,-1,-1,-1,-1,-1,-1],"loss_changes":[1.2437393E3,1.9427661E3,3.4206836E2,1.4395294E0,5.436533E2,1.9108824E1,5.676953E1,0E0,0E0,0E0,0E0,0E0,0E0,0E0,0E0],"parents":[2147483647,0,0,1,1,2,2,3,3,4,4,5,5,6,6],"right_children":[2,4,6,8,10,12,14,-1,-1,-1,-1,-1,-1,-1,-1],"split_conditions":[5.697778E1,5.0357143E1,9.95E1,4.991E1,5.39E1,9.665667E1,1.23331665E2,-1.2373793E-1,-2.145117E-1,6.351182E-1,2.1541117E-1,-9.507678E-3,-8.575579E-2,-2.516088E-1,-1.2053831E-1],"split_indices":[0,0,0,0,0,0,0,0,0,0,0,0,0,0,0],"split_type":[0,0,0,0,0,0,0,0,0,0,0,0,0,0,0],"sum_hessian":[1.6E2,5.9E1,1.01E2,2.6E1,3.3E1,5.7E1,4.4E1,2.4E1,2E0,1.6E1,1.7E1,4.8E1,9E0,2.8E1,1.6E1],"tree_param":{"num_deleted":"0","num_feature":"1","num_nodes":"15","size_leaf_vector":"1"}},{"base_weights":[3.1928305E-2,3.4720566E0,-1.9919896E0,-8.510747E-1,1.0463662E1,-4.3518093E-1,-3.9542766E0,1.4846059E-2,-5.341635E-1,1.3898183E0,2.0523901E-1,-8.189603E-4,-5.861449E-2,-2.0949975E-1,3.7122156E-2],"categories":[],"categories_nodes":[],"categories_segments":[],"categories_sizes":[],"default_left":[0,0,0,0,0,0,0,0,0,0,0,0,0,0,0],"id":16,"left_children":[1,3,5,7,9,11,13,-1,-1,-1,-1,-1,-1,-1,-1],"loss_changes":[1.1278848E3,1.8224431E3,3.0987955E2,4.320902E2,2.4208845E3,1.788554E1,5.293042E1,0E0,0E0,0E0,0E0,0E0,0E0,0E0,0E0],"parents":[2147483647,0,0,1,1,2,2,3,3,4,4,5,5,6,6],"right_children":[2,4,6,8,10,12,14,-1,-1,-1,-1,-1,-1,-1,-1],"split_conditions":[5.697778E1,5.3379105E1,9.95E1,5.2566666E1,5.39E1,6.99E1,1.8399E2,1.4846059E-2,-5.341635E-1,1.3898183E0,2.0523901E-1,-8.189603E-4,-5.861449E-2,-2.0949975E-1,3.7122156E-2],"split_indices":[0,0,0,0,0,0,0,0,0,0,0,0,0,0,0],"split_type":[0,0,0,0,0,0,0,0,0,0,0,0,0,0,0],"sum_hessian":[1.6E2,5.9E1,1.01E2,3.7E1,2.2E1,5.7E1,4.4E1,3.4E1,3E0,5E0,1.7E1,3.7E1,2E1,4.2E1,2E0],"tree_param":{"num_deleted":"0","num_feature":"1","num_nodes":"15","size_leaf_vector":"1"}},{"base_weights":[3.557381E-2,3.3163831E0,-1.8946627E0,-1.466274E0,9.216159E0,-4.1444626E-1,-3.7603936E0,-1.36273075E-2,-5.175548E-1,8.921966E-1,1.9554721E-1,-3.7650313E-2,2.2318762E-2,-2.2934838E-1,-1.0645781E-1],"categories":[],"categories_nodes":[],"categories_segments":[],"categories_sizes":[],"default_left":[0,0,0,0,0,0,0,0,0,0,0,0,0,0,0],"id":17,"left_children":[1,3,5,7,9,11,13,-1,-1,-1,-1,-1,-1,-1,-1],"loss_changes":[1.0258541E3,1.7065098E3,2.8013342E2,3.577849E2,1.1660623E3,1.7239628E1,5.0908936E1,0E0,0E0,0E0,0E0,0E0,0E0,0E0,0E0],"parents":[2147483647,0,0,1,1,2,2,3,3,4,4,5,5,6,6],"right_children":[2,4,6,8,10,12,14,-1,-1,-1,-1,-1,-1,-1,-1],"split_conditions":[5.697778E1,5.2406944E1,9.95E1,5.1233334E1,5.39E1,8.999E1,1.23331665E2,-1.36273075E-2,-5.175548E-1,8.921966E-1,1.9554721E-1,-3.7650313E-2,2.2318762E-2,-2.2934838E-1,-1.0645781E-1],"split_indices":[0,0,0,0,0,0,0,0,0,0,0,0,0,0,0],"split_type":[0,0,0,0,0,0,0,0,0,0,0,0,0,0,0],"sum_hessian":[1.6E2,5.9E1,1.01E2,3.3E1,2.6E1,5.7E1,4.4E1,3E1,3E0,9E0,1.7E1,4.1E1,1.6E1,2.8E1,1.6E1],"tree_param":{"num_deleted":"0","num_feature":"1","num_nodes":"15","size_leaf_vector":"1"}},{"base_weights":[3.5070904E-2,3.1598399E0,-1.8033724E0,-2.6434302E0,7.6753826E0,-3.9398855E-1,-3.5798366E0,-1.17856994E-1,-2.0740195E-1,2.930471E-1,8.5134757E-1,-6.937387E-3,-8.026349E-2,-1.900682E-1,3.9433353E-2],"categories":[],"categories_nodes":[],"categories_segments":[],"categories_sizes":[],"default_left":[0,0,0,0,0,0,0,0,0,0,0,0,0,0,0],"id":18,"left_children":[1,3,5,7,9,11,13,-1,-1,-1,-1,-1,-1,-1,-1],"loss_changes":[9.305968E2,1.5925844E3,2.53969E2,1.8528748E0,4.771134E2,1.7709038E1,4.6546448E1,0E0,0E0,0E0,0E0,0E0,0E0,0E0,0E0],"parents":[2147483647,0,0,1,1,2,2,3,3,4,4,5,5,6,6],"right_children":[2,4,6,8,10,12,14,-1,-1,-1,-1,-1,-1,-1,-1],"split_conditions":[5.697778E1,5.0357143E1,9.95E1,4.991E1,5.51E1,9.665667E1,1.8399E2,-1.17856994E-1,-2.0740195E-1,2.930471E-1,8.5134757E-1,-6.937387E-3,-8.026349E-2,-1.900682E-1,3.9433353E-2],"split_indices":[0,0,0,0,0,0,0,0,0,0,0,0,0,0,0],"split_type":[0,0,0,0,0,0,0,0,0,0,0,0,0,0,0],"sum_hessian":[1.6E2,5.9E1,1.01E2,2.6E1,3.3E1,5.7E1,4.4E1,2.4E1,2E0,2.9E1,4E0,4.8E1,9E0,4.2E1,2E0],"tree_param":{"num_deleted":"0","num_feature":"1","num_nodes":"15","size_leaf_vector":"1"}},{"base_weights":[3.6927775E-2,3.0155E0,-1.7155356E0,-8.639623E-1,9.293938E0,-3.7579292E-1,-3.4041922E0,1.6936796E-2,-5.585791E-1,1.5442717E0,2.255471E-1,-3.5474043E-2,2.3535898E-2,-2.0910071E-1,-9.385366E-2],"categories":[],"categories_nodes":[],"categories_segments":[],"categories_sizes":[],"default_left":[0,0,0,0,0,0,0,0,0,0,0,0,0,0,0],"id":19,"left_children":[1,3,5,7,9,11,13,-1,-1,-1,-1,-1,-1,-1,-1],"loss_changes":[8.455673E2,1.4694474E3,2.29482E2,4.7486844E2,2.2359343E3,1.671725E1,4.5602234E1,0E0,0E0,0E0,0E0,0E0,0E0,0E0,0E0],"parents":[2147483647,0,0,1,1,2,2,3,3,4,4,5,5,6,6],"right_children":[2,4,6,8,10,12,14,-1,-1,-1,-1,-1,-1,-1,-1],"split_conditions":[5.697778E1,5.3379105E1,9.95E1,5.2566666E1,5.3709522E1,8.999E1,1.23331665E2,1.6936796E-2,-5.585791E-1,1.5442717E0,2.255471E-1,-3.5474043E-2,2.3535898E-2,-2.0910071E-1,-9.385366E-2],"split_indices":[0,0,0,0,0,0,0,0,0,0,0,0,0,0,0],"split_type":[0,0,0,0,0,0,0,0,0,0,0,0,0,0,0],"sum_hessian":[1.6E2,5.9E1,1.01E2,3.7E1,2.2E1,5.7E1,4.4E1,3.4E1,3E0,3E0,1.9E1,4.1E1,1.6E1,2.8E1,1.6E1],"tree_param":{"num_deleted":"0","num_feature":"1","num_nodes":"15","size_leaf_vector":"1"}},{"base_weights":[4.0753696E-2,2.885194E0,-1.6328461E0,-2.5396152E0,7.108272E0,-1.0563247E-1,-2.988413E0,-1.1301285E-1,-2.0105313E-1,5.4605263E-1,1.556205E-1,-3.3742588E-2,1.4479864E-1,-1.5754727E-1,4.1247368E-2],"categories":[],"categories_nodes":[],"categories_segments":[],"categories_sizes":[],"default_left":[0,0,0,0,0,0,0,0,0,0,0,0,0,0,0],"id":20,"left_children":[1,3,5,7,9,11,13,-1,-1,-1,-1,-1,-1,-1,-1],"loss_changes":[7.7114435E2,1.392616E3,2.1084885E2,2.085434E0,4.8401074E2,8.567436E1,3.6068237E1,0E0,0E0,0E0,0E0,0E0,0E0,0E0,0E0],"parents":[2147483647,0,0,1,1,2,2,3,3,4,4,5,5,6,6],"right_children":[2,4,6,8,10,12,14,-1,-1,-1,-1,-1,-1,-1,-1],"split_conditions":[5.697778E1,5.0357143E1,9.665667E1,4.991E1,5.39E1,8.999E1,1.8399E2,-1.1301285E-1,-2.0105313E-1,5.4605263E-1,1.556205E-1,-3.3742588E-2,1.4479864E-1,-1.5754727E-1,4.1247368E-2],"split_indices":[0,0,0,0,0,0,0,0,0,0,0,0,0,0,0],"split_type":[0,0,0,0,0,0,0,0,0,0,0,0,0,0,0],"sum_hessian":[1.6E2,5.9E1,1.01E2,2.6E1,3.3E1,4.8E1,5.3E1,2.4E1,2E0,1.6E1,1.7E1,4.1E1,7E0,5.1E1,2E0],"tree_param":{"num_deleted":"0","num_feature":"1","num_nodes":"15","size_leaf_vector":"1"}},{"base_weights":[4.1091096E-2,2.7473948E0,-1.5512551E0,-9.111278E-1,8.672459E0,-3.2638508E-1,-3.095504E0,1.4322701E-2,-5.5810934E-1,1.4658844E0,2.0548947E-1,4.761381E-3,-5.368806E-2,-1.9140045E-1,-8.31924E-2],"categories":[],"categories_nodes":[],"categories_segments":[],"categories_sizes":[],"default_left":[0,0,0,0,0,0,0,0,0,0,0,0,0,0,0],"id":21,"left_children":[1,3,5,7,9,11,13,-1,-1,-1,-1,-1,-1,-1,-1],"loss_changes":[6.980708E2,1.3085204E3,1.9192311E2,4.6970377E2,2.0460497E3,1.8378239E1,4.0822083E1,0E0,0E0,0E0,0E0,0E0,0E0,0E0,0E0],"parents":[2147483647,0,0,1,1,2,2,3,3,4,4,5,5,6,6],"right_children":[2,4,6,8,10,12,14,-1,-1,-1,-1,-1,-1,-1,-1],"split_conditions":[5.697778E1,5.3379105E1,9.95E1,5.2566666E1,5.3709522E1,6.99E1,1.23331665E2,1.4322701E-2,-5.5810934E-1,1.4658844E0,2.0548947E-1,4.761381E-3,-5.368806E-2,-1.9140045E-1,-8.31924E-2],"split_indices":[0,0,0,0,0,0,0,0,0,0,0,0,0,0,0],"split_type":[0,0,0,0,0,0,0,0,0,0,0,0,0,0,0],"sum_hessian":[1.6E2,5.9E1,1.01E2,3.7E1,2.2E1,5.7E1,4.4E1,3.4E1,3E0,3E0,1.9E1,3.7E1,2E1,2.8E1,1.6E1],"tree_param":{"num_deleted":"0","num_feature":"1","num_nodes":"15","size_leaf_vector":"1"}},{"base_weights":[4.4030704E-2,2.628818E0,-1.4768642E0,-1.4246854E0,7.635866E0,-8.962711E-2,-2.708304E0,-9.639525E-3,-5.30785E-1,7.8141946E-1,1.3856804E-1,-3.204969E-2,1.4081256E-1,-1.430838E-1,4.264555E-2],"categories":[],"categories_nodes":[],"categories_segments":[],"categories_sizes":[],"default_left":[0,0,0,0,0,0,0,0,0,0,0,0,0,0,0],"id":22,"left_children":[1,3,5,7,9,11,13,-1,-1,-1,-1,-1,-1,-1,-1],"loss_changes":[6.3680396E2,1.2286439E3,1.7400375E2,3.8291373E2,1.00643933E3,8.031323E1,3.1935059E1,0E0,0E0,0E0,0E0,0E0,0E0,0E0,0E0],"parents":[2147483647,0,0,1,1,2,2,3,3,4,4,5,5,6,6],"right_children":[2,4,6,8,10,12,14,-1,-1,-1,-1,-1,-1,-1,-1],"split_conditions":[5.697778E1,5.2406944E1,9.665667E1,5.1233334E1,5.39E1,8.999E1,1.8399E2,-9.639525E-3,-5.30785E-1,7.8141946E-1,1.3856804E-1,-3.204969E-2,1.4081256E-1,-1.430838E-1,4.264555E-2],"split_indices":[0,0,0,0,0,0,0,0,0,0,0,0,0,0,0],"split_type":[0,0,0,0,0,0,0,0,0,0,0,0,0,0,0],"sum_hessian":[1.6E2,5.9E1,1.01E2,3.3E1,2.6E1,4.8E1,5.3E1,3E1,3E0,9E0,1.7E1,4.1E1,7E0,5.1E1,2E0],"tree_param":{"num_deleted":"0","num_feature":"1","num_nodes":"15","size_leaf_vector":"1"}},{"base_weights":[4.423844E-2,1.596397E0,-2.2727404E0,-2.4287753E0,3.1046119E0,-3.0236003E-1,-1.9261004E0,-1.0781296E-1,-1.9450745E-1,4.9491268E-1,4.741558E-2,1.8419239E-1,-1.2463858E-1],"categories":[],"categories_nodes":[],"categories_segments":[],"categories_sizes":[],"default_left":[0,0,0,0,0,0,0,0,0,0,0,0,0],"id":23,"left_children":[1,3,5,7,9,-1,11,-1,-1,-1,-1,-1,-1],"loss_changes":[5.826355E2,5.964104E2,7.3397125E1,2.3645172E0,1.0307017E3,0E0,2.0310175E2,0E0,0E0,0E0,0E0,0E0,0E0],"parents":[2147483647,0,0,1,1,2,2,3,3,4,4,6,6],"right_children":[2,4,6,8,10,-1,12,-1,-1,-1,-1,-1,-1],"split_conditions":[6.99E1,5.0357143E1,8.999E1,4.991E1,5.39E1,-3.0236003E-1,9.2594E1,-1.0781296E-1,-1.9450745E-1,4.9491268E-1,4.741558E-2,1.8419239E-1,-1.2463858E-1],"split_indices":[0,0,0,0,0,0,0,0,0,0,0,0,0],"split_type":[0,0,0,0,0,0,0,0,0,0,0,0,0],"sum_hessian":[1.6E2,9.6E1,6.4E1,2.6E1,7E1,4E0,6E1,2.4E1,2E0,1.6E1,5.4E1,5E0,5.5E1],"tree_param":{"num_deleted":"0","num_feature":"1","num_nodes":"13","size_leaf_vector":"1"}},{"base_weights":[4.2009223E-2,2.4079013E0,-1.3501039E0,-9.7755593E-1,7.896574E0,-2.8468153E-1,-2.6933126E0,1.3794686E-2,-5.850426E-1,1.3630514E0,1.8144272E-1,-3.1134082E-2,2.8356178E-2,-1.6923591E-1,-6.7771286E-2],"categories":[],"categories_nodes":[],"categories_segments":[],"categories_sizes":[],"default_left":[0,0,0,0,0,0,0,0,0,0,0,0,0,0,0],"id":24,"left_children":[1,3,5,7,9,11,13,-1,-1,-1,-1,-1,-1,-1,-1],"loss_changes":[5.335188E2,1.1226194E3,1.452039E2,5.139904E2,1.8018411E3,1.705193E1,3.703827E1,0E0,0E0,0E0,0E0,0E0,0E0,0E0,0E0],"parents":[2147483647,0,0,1,1,2,2,3,3,4,4,5,5,6,6],"right_children":[2,4,6,8,10,12,14,-1,-1,-1,-1,-1,-1,-1,-1],"split_conditions":[5.697778E1,5.3379105E1,9.95E1,5.2566666E1,5.3709522E1,8.999E1,1.23331665E2,1.3794686E-2,-5.850426E-1,1.3630514E0,1.8144272E-1,-3.1134082E-2,2.8356178E-2,-1.6923591E-1,-6.7771286E-2],"split_indices":[0,0,0,0,0,0,0,0,0,0,0,0,0,0,0],"split_type":[0,0,0,0,0,0,0,0,0,0,0,0,0,0,0],"sum_hessian":[1.6E2,5.9E1,1.01E2,3.7E1,2.2E1,5.7E1,4.4E1,3.4E1,3E0,3E0,1.9E1,4.1E1,1.6E1,2.8E1,1.6E1],"tree_param":{"num_deleted":"0","num_feature":"1","num_nodes":"15","size_leaf_vector":"1"}},{"base_weights":[4.446423E-2,1.4664898E0,-2.0783195E0,-2.3318176E0,2.8902617E0,-2.8902027E-1,-1.740799E0,-1.0330011E-1,-1.8848369E-1,4.6336603E-1,4.3331034E-2,1.7533617E-1,-1.1359739E-1],"categories":[],"categories_nodes":[],"categories_segments":[],"categories_sizes":[],"default_left":[0,0,0,0,0,0,0,0,0,0,0,0,0],"id":25,"left_children":[1,3,5,7,9,-1,11,-1,-1,-1,-1,-1,-1],"loss_changes":[4.890509E2,5.3130817E2,7.115692E1,2.531372E0,9.08215E2,0E0,1.7798724E2,0E0,0E0,0E0,0E0,0E0,0E0],"parents":[2147483647,0,0,1,1,2,2,3,3,4,4,6,6],"right_children":[2,4,6,8,10,-1,12,-1,-1,-1,-1,-1,-1],"split_conditions":[6.99E1,5.0357143E1,8.999E1,4.991E1,5.39E1,-2.8902027E-1,9.2594E1,-1.0330011E-1,-1.8848369E-1,4.6336603E-1,4.3331034E-2,1.7533617E-1,-1.1359739E-1],"split_indices":[0,0,0,0,0,0,0,0,0,0,0,0,0],"split_type":[0,0,0,0,0,0,0,0,0,0,0,0,0],"sum_hessian":[1.6E2,9.6E1,6.4E1,2.6E1,7E1,4E0,6E1,2.4E1,2E0,1.6E1,5.4E1,5E0,5.5E1],"tree_param":{"num_deleted":"0","num_feature":"1","num_nodes":"13","size_leaf_vector":"1"}},{"base_weights":[4.2164173E-2,2.2154882E0,-1.2366751E0,-1.002681E0,7.436138E0,-2.7177635E-1,-2.4528408E0,1.1909294E-2,-5.804798E-1,1.2945607E0,1.6866581E-1,-3.0146807E-2,2.81185E-2,-1.555819E-1,-5.9236284E-2],"categories":[],"categories_nodes":[],"categories_segments":[],"categories_sizes":[],"default_left":[0,0,0,0,0,0,0,0,0,0,0,0,0,0,0],"id":26,"left_children":[1,3,5,7,9,11,13,-1,-1,-1,-1,-1,-1,-1,-1],"loss_changes":[4.5021237E2,1.0155122E3,1.1902803E2,5.0291254E2,1.6371934E3,1.6360746E1,3.390793E1,0E0,0E0,0E0,0E0,0E0,0E0,0E0,0E0],"parents":[2147483647,0,0,1,1,2,2,3,3,4,4,5,5,6,6],"right_children":[2,4,6,8,10,12,14,-1,-1,-1,-1,-1,-1,-1,-1],"split_conditions":[5.697778E1,5.3379105E1,9.95E1,5.2566666E1,5.3709522E1,8.999E1,1.23331665E2,1.1909294E-2,-5.804798E-1,1.2945607E0,1.6866581E-1,-3.0146807E-2,2.81185E-2,-1.555819E-1,-5.9236284E-2],"split_indices":[0,0,0,0,0,0,0,0,0,0,0,0,0,0,0],"split_type":[0,0,0,0,0,0,0,0,0,0,0,0,0,0,0],"sum_hessian":[1.6E2,5.9E1,1.01E2,3.7E1,2.2E1,5.7E1,4.4E1,3.4E1,3E0,3E0,1.9E1,4.1E1,1.6E1,2.8E1,1.6E1],"tree_param":{"num_deleted":"0","num_feature":"1","num_nodes":"15","size_leaf_vector":"1"}},{"base_weights":[4.426609E-2,1.347583E0,-1.9013649E0,-2.237502E0,2.6919453E0,-2.7625358E-1,-1.5731698E0,-9.8913364E-2,-1.8259789E-1,4.3398744E-1,3.9611254E-2,1.6685893E-1,-1.03559315E-1],"categories":[],"categories_nodes":[],"categories_segments":[],"categories_sizes":[],"default_left":[0,0,0,0,0,0,0,0,0,0,0,0,0],"id":27,"left_children":[1,3,5,7,9,-1,11,-1,-1,-1,-1,-1,-1],"loss_changes":[4.1082184E2,4.7352954E2,6.861151E1,2.6756897E0,8.0075946E2,0E0,1.5608339E2,0E0,0E0,0E0,0E0,0E0,0E0],"parents":[2147483647,0,0,1,1,2,2,3,3,4,4,6,6],"right_children":[2,4,6,8,10,-1,12,-1,-1,-1,-1,-1,-1],"split_conditions":[6.99E1,5.0357143E1,8.999E1,4.991E1,5.39E1,-2.7625358E-1,9.2594E1,-9.8913364E-2,-1.8259789E-1,4.3398744E-1,3.9611254E-2,1.6685893E-1,-1.03559315E-1],"split_indices":[0,0,0,0,0,0,0,0,0,0,0,0,0],"split_type":[0,0,0,0,0,0,0,0,0,0,0,0,0],"sum_hessian":[1.6E2,9.6E1,6.4E1,2.6E1,7E1,4E0,6E1,2.4E1,2E0,1.6E1,5.4E1,5E0,5.5E1],"tree_param":{"num_deleted":"0","num_feature":"1","num_nodes":"13","size_leaf_vector":"1"}},{"base_weights":[4.192327E-2,2.0383236E0,-1.132841E0,8.105862E-1,7.69066E-1,-2.5918335E-1,-2.2337143E0,-1.06802665E-1,1.7177711E-1,-2.9104639E-2,2.7691945E-2,-1.4307164E-1,-5.1575292E-2],"categories":[],"categories_nodes":[],"categories_segments":[],"categories_sizes":[],"default_left":[0,0,0,0,0,0,0,0,0,0,0,0,0],"id":28,"left_children":[1,3,5,7,-1,9,11,-1,-1,-1,-1,-1,-1],"loss_changes":[3.7990237E2,9.704338E2,9.7523254E1,4.4048727E2,0E0,1.5549273E1,3.1007599E1,0E0,0E0,0E0,0E0,0E0,0E0],"parents":[2147483647,0,0,1,1,2,2,3,3,5,5,6,6],"right_children":[2,4,6,8,-1,10,12,-1,-1,-1,-1,-1,-1],"split_conditions":[5.697778E1,5.51E1,9.95E1,5.0357143E1,7.69066E-1,8.999E1,1.23331665E2,-1.06802665E-1,1.7177711E-1,-2.9104639E-2,2.7691945E-2,-1.4307164E-1,-5.1575292E-2],"split_indices":[0,0,0,0,0,0,0,0,0,0,0,0,0],"split_type":[0,0,0,0,0,0,0,0,0,0,0,0,0],"sum_hessian":[1.6E2,5.9E1,1.01E2,5.5E1,4E0,5.7E1,4.4E1,2.6E1,2.9E1,4.1E1,1.6E1,2.8E1,1.6E1],"tree_param":{"num_deleted":"0","num_feature":"1","num_nodes":"13","size_leaf_vector":"1"}},{"base_weights":[4.3789722E-2,1.9503083E0,-1.0781211E0,7.712173E-1,7.383033E-1,-8.6690046E-2,-1.9577879E0,-1.01660304E-1,1.6347454E-1,-2.7684076E-2,1.18792556E-1,-1.0503341E-1,5.8570005E-2],"categories":[],"categories_nodes":[],"categories_segments":[],"categories_sizes":[],"default_left":[0,0,0,0,0,0,0,0,0,0,0,0,0],"id":29,"left_children":[1,3,5,7,-1,9,11,-1,-1,-1,-1,-1,-1],"loss_changes":[3.4647266E2,8.952688E2,8.878743E1,3.989957E2,0E0,5.7664757E1,2.6604065E1,0E0,0E0,0E0,0E0,0E0,0E0],"parents":[2147483647,0,0,1,1,2,2,3,3,5,5,6,6],"right_children":[2,4,6,8,-1,10,12,-1,-1,-1,-1,-1,-1],"split_conditions":[5.697778E1,5.51E1,9.665667E1,5.0357143E1,7.383033E-1,8.999E1,1.8399E2,-1.01660304E-1,1.6347454E-1,-2.7684076E-2,1.18792556E-1,-1.0503341E-1,5.8570005E-2],"split_indices":[0,0,0,0,0,0,0,0,0,0,0,0,0],"split_type":[0,0,0,0,0,0,0,0,0,0,0,0,0],"sum_hessian":[1.6E2,5.9E1,1.01E2,5.5E1,4E0,4.8E1,5.3E1,2.6E1,2.9E1,4.1E1,7E0,5.1E1,2E0],"tree_param":{"num_deleted":"0","num_feature":"1","num_nodes":"13","size_leaf_vector":"1"}},{"base_weights":[4.6847295E-2,1.1973331E0,-1.6707523E0,-1.9353106E0,2.3717563E0,-2.629319E-1,-1.3492739E0,-8.415928E-2,-1.695625E-1,3.97788E-1,3.013344E-2,1.5380296E-1,-8.9966126E-2],"categories":[],"categories_nodes":[],"categories_segments":[],"categories_sizes":[],"default_left":[0,0,0,0,0,0,0,0,0,0,0,0,0],"id":30,"left_children":[1,3,5,7,9,-1,11,-1,-1,-1,-1,-1,-1],"loss_changes":[3.2014838E2,3.614579E2,6.787744E1,4.2030334E0,6.9658527E2,0E0,1.2702336E2,0E0,0E0,0E0,0E0,0E0,0E0],"parents":[2147483647,0,0,1,1,2,2,3,3,4,4,6,6],"right_children":[2,4,6,8,10,-1,12,-1,-1,-1,-1,-1,-1],"split_conditions":[6.99E1,5.0357143E1,8.999E1,4.991E1,5.39E1,-2.629319E-1,9.2594E1,-8.415928E-2,-1.695625E-1,3.97788E-1,3.013344E-2,1.5380296E-1,-8.9966126E-2],"split_indices":[0,0,0,0,0,0,0,0,0,0,0,0,0],"split_type":[0,0,0,0,0,0,0,0,0,0,0,0,0],"sum_hessian":[1.6E2,9.6E1,6.4E1,2.6E1,7E1,4E0,6E1,2.4E1,2E0,1.6E1,5.4E1,5E0,5.5E1],"tree_param":{"num_deleted":"0","num_feature":"1","num_nodes":"13","size_leaf_vector":"1"}},{"base_weights":[4.435012E-2,1.7908288E0,-9.834251E-1,6.552349E-1,7.075658E-1,-2.2200367E-1,-1.9429588E0,-6.754755E-2,1.7962062E-1,-2.6408061E-2,2.7372232E-2,-1.2675093E-1,-4.093412E-2],"categories":[],"categories_nodes":[],"categories_segments":[],"categories_sizes":[],"default_left":[0,0,0,0,0,0,0,0,0,0,0,0,0],"id":31,"left_children":[1,3,5,7,-1,9,11,-1,-1,-1,-1,-1,-1],"loss_changes":[2.9075412E2,8.3291724E2,7.409082E1,3.3483453E2,0E0,1.3952339E1,2.7878372E1,0E0,0E0,0E0,0E0,0E0,0E0],"parents":[2147483647,0,0,1,1,2,2,3,3,5,5,6,6],"right_children":[2,4,6,8,-1,10,12,-1,-1,-1,-1,-1,-1],"split_conditions":[5.697778E1,5.51E1,9.95E1,5.2406944E1,7.075658E-1,8.999E1,1.23331665E2,-6.754755E-2,1.7962062E-1,-2.6408061E-2,2.7372232E-2,-1.2675093E-1,-4.093412E-2],"split_indices":[0,0,0,0,0,0,0,0,0,0,0,0,0],"split_type":[0,0,0,0,0,0,0,0,0,0,0,0,0],"sum_hessian":[1.6E2,5.9E1,1.01E2,5.5E1,4E0,5.7E1,4.4E1,3.3E1,2.2E1,4.1E1,1.6E1,2.8E1,1.6E1],"tree_param":{"num_deleted":"0","num_feature":"1","num_nodes":"13","size_leaf_vector":"1"}},{"base_weights":[4.618816E-2,1.1023989E0,-1.5307138E0,-1.7828965E0,2.184097E0,-2.513583E-1,-1.2190256E0,-7.687735E-2,-1.6165882E-1,3.7570462E-1,2.4846666E-2,1.4625399E-1,-8.206343E-2],"categories":[],"categories_nodes":[],"categories_segments":[],"categories_sizes":[],"default_left":[0,0,0,0,0,0,0,0,0,0,0,0,0],"id":32,"left_children":[1,3,5,7,9,-1,11,-1,-1,-1,-1,-1,-1],"loss_changes":[2.6983948E2,3.0663284E2,6.470894E1,4.6361313E0,6.347388E2,0E0,1.1153982E2,0E0,0E0,0E0,0E0,0E0,0E0],"parents":[2147483647,0,0,1,1,2,2,3,3,4,4,6,6],"right_children":[2,4,6,8,10,-1,12,-1,-1,-1,-1,-1,-1],"split_conditions":[6.99E1,5.0357143E1,8.999E1,4.991E1,5.39E1,-2.513583E-1,9.2594E1,-7.687735E-2,-1.6165882E-1,3.7570462E-1,2.4846666E-2,1.4625399E-1,-8.206343E-2],"split_indices":[0,0,0,0,0,0,0,0,0,0,0,0,0],"split_type":[0,0,0,0,0,0,0,0,0,0,0,0,0],"sum_hessian":[1.6E2,9.6E1,6.4E1,2.6E1,7E1,4E0,6E1,2.4E1,2E0,1.6E1,5.4E1,5E0,5.5E1],"tree_param":{"num_deleted":"0","num_feature":"1","num_nodes":"13","size_leaf_vector":"1"}},{"base_weights":[4.372249E-2,1.0489491E0,-1.4570576E0,-1.298965E0,2.2798886E0,-2.4130397E-1,-1.157022E0,6.5856962E-3,-6.030993E-1,1.3622621E0,7.255745E-2,1.401601E-1,-7.803353E-2],"categories":[],"categories_nodes":[],"categories_segments":[],"categories_sizes":[],"default_left":[0,0,0,0,0,0,0,0,0,0,0,0,0],"id":33,"left_children":[1,3,5,7,9,-1,11,-1,-1,-1,-1,-1,-1],"loss_changes":[2.4441687E2,2.8330508E2,6.0119827E1,5.251352E2,1.2846089E3,0E0,1.01885735E2,0E0,0E0,0E0,0E0,0E0,0E0],"parents":[2147483647,0,0,1,1,2,2,3,3,4,4,6,6],"right_children":[2,4,6,8,10,-1,12,-1,-1,-1,-1,-1,-1],"split_conditions":[6.99E1,5.2406944E1,8.999E1,5.1233334E1,5.2566666E1,-2.4130397E-1,9.2594E1,6.5856962E-3,-6.030993E-1,1.3622621E0,7.255745E-2,1.401601E-1,-7.803353E-2],"split_indices":[0,0,0,0,0,0,0,0,0,0,0,0,0],"split_type":[0,0,0,0,0,0,0,0,0,0,0,0,0],"sum_hessian":[1.6E2,9.6E1,6.4E1,3.3E1,6.3E1,4E0,6E1,3E1,3E0,1E0,6.2E1,5E0,5.5E1],"tree_param":{"num_deleted":"0","num_feature":"1","num_nodes":"13","size_leaf_vector":"1"}},{"base_weights":[4.5630142E-2,1.6177853E0,-8.7961435E-1,5.273289E-1,6.75367E-1,-2.3337516E-1,-1.6929979E0,-5.1982302E-2,1.8167624E-1,-2.7063522E-2,2.705176E-2,-1.3484675E-1,-5.23052E-2],"categories":[],"categories_nodes":[],"categories_segments":[],"categories_sizes":[],"default_left":[0,0,0,0,0,0,0,0,0,0,0,0,0],"id":34,"left_children":[1,3,5,7,-1,9,11,-1,-1,-1,-1,-1,-1],"loss_changes":[2.3561812E2,7.707796E2,5.3220215E1,2.763481E2,0E0,1.4122209E1,2.640355E1,0E0,0E0,0E0,0E0,0E0,0E0],"parents":[2147483647,0,0,1,1,2,2,3,3,5,5,6,6],"right_children":[2,4,6,8,-1,10,12,-1,-1,-1,-1,-1,-1],"split_conditions":[5.697778E1,5.51E1,9.95E1,5.3379105E1,6.75367E-1,8.999E1,1.1E2,-5.1982302E-2,1.8167624E-1,-2.7063522E-2,2.705176E-2,-1.3484675E-1,-5.23052E-2],"split_indices":[0,0,0,0,0,0,0,0,0,0,0,0,0],"split_type":[0,0,0,0,0,0,0,0,0,0,0,0,0],"sum_hessian":[1.6E2,5.9E1,1.01E2,5.5E1,4E0,5.7E1,4.4E1,3.7E1,1.8E1,4.1E1,1.6E1,1.6E1,2.8E1],"tree_param":{"num_deleted":"0","num_feature":"1","num_nodes":"13","size_leaf_vector":"1"}},{"base_weights":[4.718649E-2,1.5503136E0,-8.3746856E-1,5.032784E-1,6.483523E-1,-2.2170655E-1,-1.612507E0,8.888654E-2,-1.7235295E-1,-2.5742559E-2,2.577873E-2,-8.9123815E-2,6.80611E-2],"categories":[],"categories_nodes":[],"categories_segments":[],"categories_sizes":[],"default_left":[0,0,0,0,0,0,0,0,0,0,0,0,0],"id":35,"left_children":[1,3,5,7,-1,9,11,-1,-1,-1,-1,-1,-1],"loss_changes":[2.1538792E2,7.1069727E2,4.83209E1,2.8806085E2,0E0,1.28009815E1,2.5171265E1,0E0,0E0,0E0,0E0,0E0,0E0],"parents":[2147483647,0,0,1,1,2,2,3,3,5,5,6,6],"right_children":[2,4,6,8,-1,10,12,-1,-1,-1,-1,-1,-1],"split_conditions":[5.697778E1,5.51E1,9.95E1,5.39E1,6.483523E-1,8.999E1,1.8399E2,8.888654E-2,-1.7235295E-1,-2.5742559E-2,2.577873E-2,-8.9123815E-2,6.80611E-2],"split_indices":[0,0,0,0,0,0,0,0,0,0,0,0,0],"split_type":[0,0,0,0,0,0,0,0,0,0,0,0,0],"sum_hessian":[1.6E2,5.9E1,1.01E2,5.5E1,4E0,5.7E1,4.4E1,4.2E1,1.3E1,4.1E1,1.6E1,4.2E1,2E0],"tree_param":{"num_deleted":"0","num_feature":"1","num_nodes":"13","size_leaf_vector":"1"}},{"base_weights":[4.8205286E-2,1.4822131E0,-7.9580134E-1,4.766244E-1,6.224182E-1,-9.500866E-2,-1.4169687E0,-5.3778943E-2,1.7779727E-1,-2.4486084E-2,9.9455535E-2,-7.7369094E-2,6.5792404E-2],"categories":[],"categories_nodes":[],"categories_segments":[],"categories_sizes":[],"default_left":[0,0,0,0,0,0,0,0,0,0,0,0,0],"id":36,"left_children":[1,3,5,7,-1,9,11,-1,-1,-1,-1,-1,-1],"loss_changes":[1.9603978E2,6.5571313E2,4.426696E1,2.714897E2,0E0,4.128293E1,2.1281456E1,0E0,0E0,0E0,0E0,0E0,0E0],"parents":[2147483647,0,0,1,1,2,2,3,3,5,5,6,6],"right_children":[2,4,6,8,-1,10,12,-1,-1,-1,-1,-1,-1],"split_conditions":[5.697778E1,5.51E1,9.665667E1,5.3379105E1,6.224182E-1,8.999E1,1.8399E2,-5.3778943E-2,1.7779727E-1,-2.4486084E-2,9.9455535E-2,-7.7369094E-2,6.5792404E-2],"split_indices":[0,0,0,0,0,0,0,0,0,0,0,0,0],"split_type":[0,0,0,0,0,0,0,0,0,0,0,0,0],"sum_hessian":[1.6E2,5.9E1,1.01E2,5.5E1,4E0,4.8E1,5.3E1,3.7E1,1.8E1,4.1E1,7E0,5.1E1,2E0],"tree_param":{"num_deleted":"0","num_feature":"1","num_nodes":"13","size_leaf_vector":"1"}},{"base_weights":[5.0825182E-2,9.126211E-1,-1.2360214E0,-1.6926789E0,1.8905151E0,-2.2856012E-1,-9.423832E-1,-7.269339E-2,-1.5592724E-1,3.5150698E-1,1.3376551E-2,1.2797488E-1,-6.5037824E-2],"categories":[],"categories_nodes":[],"categories_segments":[],"categories_sizes":[],"default_left":[0,0,0,0,0,0,0,0,0,0,0,0,0],"id":37,"left_children":[1,3,5,7,9,-1,11,-1,-1,-1,-1,-1,-1],"loss_changes":[1.7967686E2,2.5032764E2,5.9349037E1,4.659889E0,5.9036774E2,0E0,7.988308E1,0E0,0E0,0E0,0E0,0E0,0E0],"parents":[2147483647,0,0,1,1,2,2,3,3,4,4,6,6],"right_children":[2,4,6,8,10,-1,12,-1,-1,-1,-1,-1,-1],"split_conditions":[6.99E1,5.0357143E1,8.999E1,4.991E1,5.39E1,-2.2856012E-1,9.2594E1,-7.269339E-2,-1.5592724E-1,3.5150698E-1,1.3376551E-2,1.2797488E-1,-6.5037824E-2],"split_indices":[0,0,0,0,0,0,0,0,0,0,0,0,0],"split_type":[0,0,0,0,0,0,0,0,0,0,0,0,0],"sum_hessian":[1.6E2,9.6E1,6.4E1,2.6E1,7E1,4E0,6E1,2.4E1,2E0,1.6E1,5.4E1,5E0,5.5E1],"tree_param":{"num_deleted":"0","num_feature":"1","num_nodes":"13","size_leaf_vector":"1"}},{"base_weights":[4.8101794E-2,1.3572935E0,-7.2248256E-1,3.8819575E-1,5.969865E-1,7.359811E-2,-1.1767684E0,8.1677265E-2,-1.7322674E-1,-1.1702924E-1,1.0105267E-2,-2.1941769E-1,-4.4711623E-2],"categories":[],"categories_nodes":[],"categories_segments":[],"categories_sizes":[],"default_left":[0,0,0,0,0,0,0,0,0,0,0,0,0],"id":38,"left_children":[1,3,5,7,-1,9,11,-1,-1,-1,-1,-1,-1],"loss_changes":[1.634043E2,6.1068994E2,3.6974728E1,2.7434726E2,0E0,1.2262163E1,5.5056038E1,0E0,0E0,0E0,0E0,0E0,0E0],"parents":[2147483647,0,0,1,1,2,2,3,3,5,5,6,6],"right_children":[2,4,6,8,-1,10,12,-1,-1,-1,-1,-1,-1],"split_conditions":[5.697778E1,5.51E1,6.99E1,5.39E1,5.969865E-1,5.99E1,8.999E1,8.1677265E-2,-1.7322674E-1,-1.1702924E-1,1.0105267E-2,-2.1941769E-1,-4.4711623E-2],"split_indices":[0,0,0,0,0,0,0,0,0,0,0,0,0],"split_type":[0,0,0,0,0,0,0,0,0,0,0,0,0],"sum_hessian":[1.6E2,5.9E1,1.01E2,5.5E1,4E0,3.7E1,6.4E1,4.2E1,1.3E1,1E0,3.6E1,4E0,6E1],"tree_param":{"num_deleted":"0","num_feature":"1","num_nodes":"13","size_leaf_vector":"1"}},{"base_weights":[4.653157E-2,1.297853E0,-6.89996E-1,-1.1503762E0,5.286325E0,-1.6156466E-1,-1.3557521E0,1.0880429E-2,-6.416325E-1,1.145648E0,7.4834086E-2,-2.2040626E-2,2.689228E-2,-1.1550138E-1,-3.7479956E-2],"categories":[],"categories_nodes":[],"categories_segments":[],"categories_sizes":[],"default_left":[0,0,0,0,0,0,0,0,0,0,0,0,0,0,0],"id":39,"left_children":[1,3,5,7,9,11,13,-1,-1,-1,-1,-1,-1,-1,-1],"loss_changes":[1.4927838E2,5.919629E2,3.566521E1,6.1007697E2,1.5020757E3,1.15650015E1,2.4298073E1,0E0,0E0,0E0,0E0,0E0,0E0,0E0,0E0],"parents":[2147483647,0,0,1,1,2,2,3,3,4,4,5,5,6,6],"right_children":[2,4,6,8,10,12,14,-1,-1,-1,-1,-1,-1,-1,-1],"split_conditions":[5.697778E1,5.3379105E1,9.95E1,5.2566666E1,5.3709522E1,8.999E1,1.1E2,1.0880429E-2,-6.416325E-1,1.145648E0,7.4834086E-2,-2.2040626E-2,2.689228E-2,-1.1550138E-1,-3.7479956E-2],"split_indices":[0,0,0,0,0,0,0,0,0,0,0,0,0,0,0],"split_type":[0,0,0,0,0,0,0,0,0,0,0,0,0,0,0],"sum_hessian":[1.6E2,5.9E1,1.01E2,3.7E1,2.2E1,5.7E1,4.4E1,3.4E1,3E0,3E0,1.9E1,4.1E1,1.6E1,1.6E1,2.8E1],"tree_param":{"num_deleted":"0","num_feature":"1","num_nodes":"15","size_leaf_vector":"1"}},{"base_weights":[4.6947718E-2,8.034309E-1,-1.0826802E0,-1.336902E0,1.9279292E0,-2.0975938E-1,-8.098079E-1,3.6540863E-3,-5.965025E-1,1.317526E0,5.610034E-2,1.2338509E-1,-5.7325434E-2],"categories":[],"categories_nodes":[],"categories_segments":[],"categories_sizes":[],"default_left":[0,0,0,0,0,0,0,0,0,0,0,0,0],"id":40,"left_children":[1,3,5,7,9,-1,11,-1,-1,-1,-1,-1,-1],"loss_changes":[1.3845154E2,2.3603711E2,5.1808327E1,5.0870154E2,1.230128E3,0E0,7.01452E1,0E0,0E0,0E0,0E0,0E0,0E0],"parents":[2147483647,0,0,1,1,2,2,3,3,4,4,6,6],"right_children":[2,4,6,8,10,-1,12,-1,-1,-1,-1,-1,-1],"split_conditions":[6.99E1,5.2406944E1,8.999E1,5.1233334E1,5.2566666E1,-2.0975938E-1,9.2594E1,3.6540863E-3,-5.965025E-1,1.317526E0,5.610034E-2,1.2338509E-1,-5.7325434E-2],"split_indices":[0,0,0,0,0,0,0,0,0,0,0,0,0],"split_type":[0,0,0,0,0,0,0,0,0,0,0,0,0],"sum_hessian":[1.6E2,9.6E1,6.4E1,3.3E1,6.3E1,4E0,6E1,3E1,3E0,1E0,6.2E1,5E0,5.5E1],"tree_param":{"num_deleted":"0","num_feature":"1","num_nodes":"13","size_leaf_vector":"1"}},{"base_weights":[4.8557404E-2,1.225453E0,-6.4421016E-1,2.9893252E-1,5.678696E-1,-1.744892E-1,-1.2353125E0,7.522549E-2,-1.712632E-1,-2.2437057E-2,2.5666926E-2,-8.803608E-2,-1.33180395E-2],"categories":[],"categories_nodes":[],"categories_segments":[],"categories_sizes":[],"default_left":[0,0,0,0,0,0,0,0,0,0,0,0,0],"id":41,"left_children":[1,3,5,7,-1,9,11,-1,-1,-1,-1,-1,-1],"loss_changes":[1.3205518E2,5.598518E2,2.8105076E1,2.5658246E2,0E0,1.1171364E1,2.2440338E1,0E0,0E0,0E0,0E0,0E0,0E0],"parents":[2147483647,0,0,1,1,2,2,3,3,5,5,6,6],"right_children":[2,4,6,8,-1,10,12,-1,-1,-1,-1,-1,-1],"split_conditions":[5.697778E1,5.51E1,9.95E1,5.39E1,5.678696E-1,8.999E1,1.23331665E2,7.522549E-2,-1.712632E-1,-2.2437057E-2,2.5666926E-2,-8.803608E-2,-1.33180395E-2],"split_indices":[0,0,0,0,0,0,0,0,0,0,0,0,0],"split_type":[0,0,0,0,0,0,0,0,0,0,0,0,0],"sum_hessian":[1.6E2,5.9E1,1.01E2,5.5E1,4E0,5.7E1,4.4E1,4.2E1,1.3E1,4.1E1,1.6E1,2.8E1,1.6E1],"tree_param":{"num_deleted":"0","num_feature":"1","num_nodes":"13","size_leaf_vector":"1"}},{"base_weights":[4.84506E-2,1.1720439E0,-6.129616E-1,-1.1775957E0,5.0030985E0,5.5788115E-2,-9.944928E-1,7.2157667E-3,-6.2249595E-1,1.0977615E0,6.812588E-2,-1.1439407E-1,9.048259E-3,-2.004715E-1,-3.6553185E-2],"categories":[],"categories_nodes":[],"categories_segments":[],"categories_sizes":[],"default_left":[0,0,0,0,0,0,0,0,0,0,0,0,0,0,0],"id":42,"left_children":[1,3,5,7,9,11,13,-1,-1,-1,-1,-1,-1,-1,-1],"loss_changes":[1.20366905E2,5.4598755E2,2.6080666E1,5.6803503E2,1.3895444E3,1.1562224E1,4.8693306E1,0E0,0E0,0E0,0E0,0E0,0E0,0E0,0E0],"parents":[2147483647,0,0,1,1,2,2,3,3,4,4,5,5,6,6],"right_children":[2,4,6,8,10,12,14,-1,-1,-1,-1,-1,-1,-1,-1],"split_conditions":[5.697778E1,5.3379105E1,6.99E1,5.2566666E1,5.3709522E1,5.99E1,8.999E1,7.2157667E-3,-6.2249595E-1,1.0977615E0,6.812588E-2,-1.1439407E-1,9.048259E-3,-2.004715E-1,-3.6553185E-2],"split_indices":[0,0,0,0,0,0,0,0,0,0,0,0,0,0,0],"split_type":[0,0,0,0,0,0,0,0,0,0,0,0,0,0,0],"sum_hessian":[1.6E2,5.9E1,1.01E2,3.7E1,2.2E1,3.7E1,6.4E1,3.4E1,3E0,3E0,1.9E1,1E0,3.6E1,4E0,6E1],"tree_param":{"num_deleted":"0","num_feature":"1","num_nodes":"15","size_leaf_vector":"1"}},{"base_weights":[4.732145E-2,1.1226184E0,-5.856701E-1,2.341809E-1,5.4242975E-1,-5.9818346E-2,-1.0519861E0,6.945007E-2,-1.6647474E-1,-2.0638887E-2,9.003478E-2,-5.878083E-2,7.208023E-2],"categories":[],"categories_nodes":[],"categories_segments":[],"categories_sizes":[],"default_left":[0,0,0,0,0,0,0,0,0,0,0,0,0],"id":43,"left_children":[1,3,5,7,-1,9,11,-1,-1,-1,-1,-1,-1],"loss_changes":[1.1024276E2,5.159148E2,2.494881E1,2.3508737E2,0E0,3.2920895E1,1.8342106E1,0E0,0E0,0E0,0E0,0E0,0E0],"parents":[2147483647,0,0,1,1,2,2,3,3,5,5,6,6],"right_children":[2,4,6,8,-1,10,12,-1,-1,-1,-1,-1,-1],"split_conditions":[5.697778E1,5.51E1,9.665667E1,5.39E1,5.4242975E-1,8.999E1,1.8399E2,6.945007E-2,-1.6647474E-1,-2.0638887E-2,9.003478E-2,-5.878083E-2,7.208023E-2],"split_indices":[0,0,0,0,0,0,0,0,0,0,0,0,0],"split_type":[0,0,0,0,0,0,0,0,0,0,0,0,0],"sum_hessian":[1.6E2,5.9E1,1.01E2,5.5E1,4E0,4.8E1,5.3E1,4.2E1,1.3E1,4.1E1,7E0,5.1E1,2E0],"tree_param":{"num_deleted":"0","num_feature":"1","num_nodes":"13","size_leaf_vector":"1"}},{"base_weights":[4.82353E-2,-1.8554269E0,4.2861044E-1,-8.111308E-2,-1.5899979E-1,6.2886276E0,-4.121366E-1,1.8334968E-2,8.5421896E-1,-1.5874553E-1,-2.167693E-3],"categories":[],"categories_nodes":[],"categories_segments":[],"categories_sizes":[],"default_left":[0,0,0,0,0,0,0,0,0,0,0],"id":44,"left_children":[1,3,5,-1,-1,7,9,-1,-1,-1,-1],"loss_changes":[1.173763E2,3.179985E0,6.6770874E2,0E0,0E0,1.0805735E3,1.211071E2,0E0,0E0,0E0,0E0],"parents":[2147483647,0,0,1,1,2,2,5,5,6,6],"right_children":[2,4,6,-1,-1,8,10,-1,-1,-1,-1],"split_conditions":[5.0357143E1,4.991E1,5.39E1,-8.111308E-2,-1.5899979E-1,5.3379105E1,5.51E1,1.8334968E-2,8.5421896E-1,-1.5874553E-1,-2.167693E-3],"split_indices":[0,0,0,0,0,0,0,0,0,0,0],"split_type":[0,0,0,0,0,0,0,0,0,0,0],"sum_hessian":[1.6E2,2.6E1,1.34E2,2.4E1,2E0,1.6E1,1.18E2,1.1E1,5E0,1.3E1,1.05E2],"tree_param":{"num_deleted":"0","num_feature":"1","num_nodes":"11","size_leaf_vector":"1"}},{"base_weights":[4.8752155E-2,-1.771549E0,4.1245124E-1,-7.7219665E-2,-1.5369982E-1,6.0255237E0,-3.928822E-1,1.7494632E-2,8.186266E-1,-1.5137523E-1,-2.0603375E-3],"categories":[],"categories_nodes":[],"categories_segments":[],"categories_sizes":[],"default_left":[0,0,0,0,0,0,0,0,0,0,0],"id":45,"left_children":[1,3,5,-1,-1,7,9,-1,-1,-1,-1],"loss_changes":[1.0731941E2,3.240715E0,6.1262067E2,0E0,0E0,9.9261E2,1.1013257E2,0E0,0E0,0E0,0E0],"parents":[2147483647,0,0,1,1,2,2,5,5,6,6],"right_children":[2,4,6,-1,-1,8,10,-1,-1,-1,-1],"split_conditions":[5.0357143E1,4.991E1,5.39E1,-7.7219665E-2,-1.5369982E-1,5.3379105E1,5.51E1,1.7494632E-2,8.186266E-1,-1.5137523E-1,-2.0603375E-3],"split_indices":[0,0,0,0,0,0,0,0,0,0,0],"split_type":[0,0,0,0,0,0,0,0,0,0,0],"sum_hessian":[1.6E2,2.6E1,1.34E2,2.4E1,2E0,1.6E1,1.18E2,1.1E1,5E0,1.3E1,1.05E2],"tree_param":{"num_deleted":"0","num_feature":"1","num_nodes":"11","size_leaf_vector":"1"}},{"base_weights":[4.912043E-2,6.9050306E-1,-9.0877545E-1,-1.6915237E0,1.5866188E0,-3.8291595E0,-6.5450174E-1,-7.3513106E-2,-1.4857648E-1,2.8867158E-1,1.3183276E-2,-2.3454832E-1,-8.454832E-2,1.1512228E-1,-4.79815E-2],"categories":[],"categories_nodes":[],"categories_segments":[],"categories_sizes":[],"default_left":[0,0,0,0,0,0,0,0,0,0,0,0,0,0,0],"id":46,"left_children":[1,3,5,7,9,11,13,-1,-1,-1,-1,-1,-1,-1,-1],"loss_changes":[9.954233E1,2.0973726E2,4.5761303E1,3.277916E0,3.917437E2,1.2812805E0,5.724664E1,0E0,0E0,0E0,0E0,0E0,0E0,0E0,0E0],"parents":[2147483647,0,0,1,1,2,2,3,3,4,4,5,5,6,6],"right_children":[2,4,6,8,10,12,14,-1,-1,-1,-1,-1,-1,-1,-1],"split_conditions":[6.99E1,5.0357143E1,8.999E1,4.991E1,5.39E1,8.9E1,9.2594E1,-7.3513106E-2,-1.4857648E-1,2.8867158E-1,1.3183276E-2,-2.3454832E-1,-8.454832E-2,1.1512228E-1,-4.79815E-2],"split_indices":[0,0,0,0,0,0,0,0,0,0,0,0,0,0,0],"split_type":[0,0,0,0,0,0,0,0,0,0,0,0,0,0,0],"sum_hessian":[1.6E2,9.6E1,6.4E1,2.6E1,7E1,4E0,6E1,2.4E1,2E0,1.6E1,5.4E1,2E0,2E0,5E0,5.5E1],"tree_param":{"num_deleted":"0","num_feature":"1","num_nodes":"15","size_leaf_vector":"1"}},{"base_weights":[4.5594666E-2,1.0228125E0,-5.2968633E-1,1.6663064E-1,5.203743E-1,-1.2667638E-1,-1.0373505E0,-5.6287885E-2,1.3713187E-1,-1.924615E-2,2.5939811E-2,-9.6282244E-2,-2.4042781E-2],"categories":[],"categories_nodes":[],"categories_segments":[],"categories_sizes":[],"default_left":[0,0,0,0,0,0,0,0,0,0,0,0,0],"id":47,"left_children":[1,3,5,7,-1,9,11,-1,-1,-1,-1,-1,-1],"loss_changes":[9.105191E1,4.8036496E2,2.0737154E1,1.895228E2,0E0,9.86778E0,2.131895E1,0E0,0E0,0E0,0E0,0E0,0E0],"parents":[2147483647,0,0,1,1,2,2,3,3,5,5,6,6],"right_children":[2,4,6,8,-1,10,12,-1,-1,-1,-1,-1,-1],"split_conditions":[5.697778E1,5.51E1,9.95E1,5.3379105E1,5.203743E-1,8.999E1,1.1E2,-5.6287885E-2,1.3713187E-1,-1.924615E-2,2.5939811E-2,-9.6282244E-2,-2.4042781E-2],"split_indices":[0,0,0,0,0,0,0,0,0,0,0,0,0],"split_type":[0,0,0,0,0,0,0,0,0,0,0,0,0],"sum_hessian":[1.6E2,5.9E1,1.01E2,5.5E1,4E0,5.7E1,4.4E1,3.7E1,1.8E1,4.1E1,1.6E1,1.6E1,2.8E1],"tree_param":{"num_deleted":"0","num_feature":"1","num_nodes":"13","size_leaf_vector":"1"}},{"base_weights":[4.6343394E-2,6.387059E-1,-8.3835673E-1,-1.2563053E0,1.6354508E0,-3.686124E0,-5.911896E-1,7.2203698E-3,-5.898876E-1,1.2740852E0,4.262337E-2,-2.2608851E-1,-8.108851E-2,1.0924472E-1,-4.390351E-2],"categories":[],"categories_nodes":[],"categories_segments":[],"categories_sizes":[],"default_left":[0,0,0,0,0,0,0,0,0,0,0,0,0,0,0],"id":48,"left_children":[1,3,5,7,9,11,13,-1,-1,-1,-1,-1,-1,-1,-1],"loss_changes":[8.490964E1,1.8527237E2,4.3572643E1,5.0373206E2,1.1732357E3,1.2920685E0,5.049917E1,0E0,0E0,0E0,0E0,0E0,0E0,0E0,0E0],"parents":[2147483647,0,0,1,1,2,2,3,3,4,4,5,5,6,6],"right_children":[2,4,6,8,10,12,14,-1,-1,-1,-1,-1,-1,-1,-1],"split_conditions":[6.99E1,5.2406944E1,8.999E1,5.1233334E1,5.2566666E1,8.9E1,9.2594E1,7.2203698E-3,-5.898876E-1,1.2740852E0,4.262337E-2,-2.2608851E-1,-8.108851E-2,1.0924472E-1,-4.390351E-2],"split_indices":[0,0,0,0,0,0,0,0,0,0,0,0,0,0,0],"split_type":[0,0,0,0,0,0,0,0,0,0,0,0,0,0,0],"sum_hessian":[1.6E2,9.6E1,6.4E1,3.3E1,6.3E1,4E0,6E1,3E1,3E0,1E0,6.2E1,2E0,2E0,5E0,5.5E1],"tree_param":{"num_deleted":"0","num_feature":"1","num_nodes":"15","size_leaf_vector":"1"}},{"base_weights":[4.7083363E-2,-1.5679231E0,3.6973587E-1,-6.762924E-2,-1.4198834E-1,5.505224E0,-3.6701232E-1,7.453672E-3,7.649994E-1,-1.5330504E-1,-3.5332824E-4],"categories":[],"categories_nodes":[],"categories_segments":[],"categories_sizes":[],"default_left":[0,0,0,0,0,0,0,0,0,0,0],"id":49,"left_children":[1,3,5,-1,-1,7,9,-1,-1,-1,-1],"loss_changes":[8.447454E1,3.5536423E0,5.128013E2,0E0,0E0,8.895771E2,1.1558986E2,0E0,0E0,0E0,0E0],"parents":[2147483647,0,0,1,1,2,2,5,5,6,6],"right_children":[2,4,6,-1,-1,8,10,-1,-1,-1,-1],"split_conditions":[5.0357143E1,4.991E1,5.39E1,-6.762924E-2,-1.4198834E-1,5.3379105E1,5.51E1,7.453672E-3,7.649994E-1,-1.5330504E-1,-3.5332824E-4],"split_indices":[0,0,0,0,0,0,0,0,0,0,0],"split_type":[0,0,0,0,0,0,0,0,0,0,0],"sum_hessian":[1.6E2,2.6E1,1.34E2,2.4E1,2E0,1.6E1,1.18E2,1.1E1,5E0,1.3E1,1.05E2],"tree_param":{"num_deleted":"0","num_feature":"1","num_nodes":"11","size_leaf_vector":"1"}},{"base_weights":[4.7270376E-2,9.684895E-1,-4.950867E-1,1.4861648E-1,4.978685E-1,3.9182536E-2,-7.9981196E-1,5.7273217E-2,-1.4618729E-1,-1.1181777E-1,8.05628E-3,-1.7814855E-1,-2.8010592E-2],"categories":[],"categories_nodes":[],"categories_segments":[],"categories_sizes":[],"default_left":[0,0,0,0,0,0,0,0,0,0,0,0,0],"id":50,"left_children":[1,3,5,7,-1,9,11,-1,-1,-1,-1,-1,-1],"loss_changes":[8.091987E1,4.4070465E2,1.6637486E1,1.7485902E2,0E0,1.0904804E1,4.103744E1,0E0,0E0,0E0,0E0,0E0,0E0],"parents":[2147483647,0,0,1,1,2,2,3,3,5,5,6,6],"right_children":[2,4,6,8,-1,10,12,-1,-1,-1,-1,-1,-1],"split_conditions":[5.697778E1,5.51E1,6.99E1,5.39E1,4.978685E-1,5.99E1,8.999E1,5.7273217E-2,-1.4618729E-1,-1.1181777E-1,8.05628E-3,-1.7814855E-1,-2.8010592E-2],"split_indices":[0,0,0,0,0,0,0,0,0,0,0,0,0],"split_type":[0,0,0,0,0,0,0,0,0,0,0,0,0],"sum_hessian":[1.6E2,5.9E1,1.01E2,5.5E1,4E0,3.7E1,6.4E1,4.2E1,1.3E1,1E0,3.6E1,4E0,6E1],"tree_param":{"num_deleted":"0","num_feature":"1","num_nodes":"13","size_leaf_vector":"1"}},{"base_weights":[4.552179E-2,-1.5524426E0,3.6477745E-1,-6.713217E-2,-1.3916449E-1,5.221496E0,-3.3210486E-1,4.4869822E-3,7.3073804E-1,-1.3940005E-1,-2.3040772E-4],"categories":[],"categories_nodes":[],"categories_segments":[],"categories_sizes":[],"default_left":[0,0,0,0,0,0,0,0,0,0,0],"id":51,"left_children":[1,3,5,-1,-1,7,9,-1,-1,-1,-1],"loss_changes":[8.270193E1,3.2352676E0,4.586499E2,0E0,0E0,8.181555E2,9.56986E1,0E0,0E0,0E0,0E0],"parents":[2147483647,0,0,1,1,2,2,5,5,6,6],"right_children":[2,4,6,-1,-1,8,10,-1,-1,-1,-1],"split_conditions":[5.0357143E1,4.991E1,5.39E1,-6.713217E-2,-1.3916449E-1,5.3379105E1,5.51E1,4.4869822E-3,7.3073804E-1,-1.3940005E-1,-2.3040772E-4],"split_indices":[0,0,0,0,0,0,0,0,0,0,0],"split_type":[0,0,0,0,0,0,0,0,0,0,0],"sum_hessian":[1.6E2,2.6E1,1.34E2,2.4E1,2E0,1.6E1,1.18E2,1.1E1,5E0,1.3E1,1.05E2],"tree_param":{"num_deleted":"0","num_feature":"1","num_nodes":"11","size_leaf_vector":"1"}},{"base_weights":[4.5663904E-2,-1.4824611E0,3.5095066E-1,-6.390982E-2,-1.3452564E-1,5.00367E0,-3.166727E-1,4.28137E-3,7.0029056E-1,-1.3292788E-1,-2.1898342E-4],"categories":[],"categories_nodes":[],"categories_segments":[],"categories_sizes":[],"default_left":[0,0,0,0,0,0,0,0,0,0,0],"id":52,"left_children":[1,3,5,-1,-1,7,9,-1,-1,-1,-1],"loss_changes":[7.5629395E1,3.2235832E0,4.2093018E2,0E0,0E0,7.514402E2,8.701954E1,0E0,0E0,0E0,0E0],"parents":[2147483647,0,0,1,1,2,2,5,5,6,6],"right_children":[2,4,6,-1,-1,8,10,-1,-1,-1,-1],"split_conditions":[5.0357143E1,4.991E1,5.39E1,-6.390982E-2,-1.3452564E-1,5.3379105E1,5.51E1,4.28137E-3,7.0029056E-1,-1.3292788E-1,-2.1898342E-4],"split_indices":[0,0,0,0,0,0,0,0,0,0,0],"split_type":[0,0,0,0,0,0,0,0,0,0,0],"sum_hessian":[1.6E2,2.6E1,1.34E2,2.4E1,2E0,1.6E1,1.18E2,1.1E1,5E0,1.3E1,1.05E2],"tree_param":{"num_deleted":"0","num_feature":"1","num_nodes":"11","size_leaf_vector":"1"}},{"base_weights":[4.5697443E-2,9.265949E-1,-4.7292557E-1,1.392592E-1,4.779718E-1,-1.20187365E-1,-9.1705644E-1,-4.9004126E-2,1.1853065E-1,-1.8777492E-2,2.5888896E-2,-8.832938E-2,-1.9371638E-2],"categories":[],"categories_nodes":[],"categories_segments":[],"categories_sizes":[],"default_left":[0,0,0,0,0,0,0,0,0,0,0,0,0],"id":53,"left_children":[1,3,5,7,-1,9,11,-1,-1,-1,-1,-1,-1],"loss_changes":[7.399165E1,4.064854E2,1.5869301E1,1.4219167E2,0E0,9.64337E0,1.9562496E1,0E0,0E0,0E0,0E0,0E0,0E0],"parents":[2147483647,0,0,1,1,2,2,3,3,5,5,6,6],"right_children":[2,4,6,8,-1,10,12,-1,-1,-1,-1,-1,-1],"split_conditions":[5.697778E1,5.51E1,9.95E1,5.3379105E1,4.779718E-1,8.999E1,1.1E2,-4.9004126E-2,1.1853065E-1,-1.8777492E-2,2.5888896E-2,-8.832938E-2,-1.9371638E-2],"split_indices":[0,0,0,0,0,0,0,0,0,0,0,0,0],"split_type":[0,0,0,0,0,0,0,0,0,0,0,0,0],"sum_hessian":[1.6E2,5.9E1,1.01E2,5.5E1,4E0,5.7E1,4.4E1,3.7E1,1.8E1,4.1E1,1.6E1,1.6E1,2.8E1],"tree_param":{"num_deleted":"0","num_feature":"1","num_nodes":"13","size_leaf_vector":"1"}},{"base_weights":[4.6188615E-2,8.893903E-1,-4.502652E-1,1.3353798E-1,4.5885292E-1,5.3214476E-2,-7.3768E-1,5.175672E-2,-1.3225947E-1,-1.0854163E-1,8.599751E-3,-1.702535E-1,-2.5347417E-2],"categories":[],"categories_nodes":[],"categories_segments":[],"categories_sizes":[],"default_left":[0,0,0,0,0,0,0,0,0,0,0,0,0],"id":54,"left_children":[1,3,5,7,-1,9,11,-1,-1,-1,-1,-1,-1],"loss_changes":[6.779678E1,3.746297E2,1.4799427E1,1.4303441E2,0E0,1.0411965E1,3.8278137E1,0E0,0E0,0E0,0E0,0E0,0E0],"parents":[2147483647,0,0,1,1,2,2,3,3,5,5,6,6],"right_children":[2,4,6,8,-1,10,12,-1,-1,-1,-1,-1,-1],"split_conditions":[5.697778E1,5.51E1,6.99E1,5.39E1,4.5885292E-1,5.99E1,8.999E1,5.175672E-2,-1.3225947E-1,-1.0854163E-1,8.599751E-3,-1.702535E-1,-2.5347417E-2],"split_indices":[0,0,0,0,0,0,0,0,0,0,0,0,0],"split_type":[0,0,0,0,0,0,0,0,0,0,0,0,0],"sum_hessian":[1.6E2,5.9E1,1.01E2,5.5E1,4E0,3.7E1,6.4E1,4.2E1,1.3E1,1E0,3.6E1,4E0,6E1],"tree_param":{"num_deleted":"0","num_feature":"1","num_nodes":"13","size_leaf_vector":"1"}},{"base_weights":[4.4393618E-2,-1.4183382E0,3.3661112E-1,-6.0974278E-2,-1.3013321E-1,4.628895E-1,-6.46142E-3,-5.706262E-1,1.7501425E-2],"categories":[],"categories_nodes":[],"categories_segments":[],"categories_sizes":[],"default_left":[0,0,0,0,0,0,0,0,0],"id":55,"left_children":[1,3,5,-1,-1,-1,7,-1,-1],"loss_changes":[6.929459E1,3.184761E0,4.1324237E2,0E0,0E0,0E0,5.366598E2,0E0,0E0],"parents":[2147483647,0,0,1,1,2,2,6,6],"right_children":[2,4,6,-1,-1,-1,8,-1,-1],"split_conditions":[5.0357143E1,4.991E1,5.1233334E1,-6.0974278E-2,-1.3013321E-1,4.628895E-1,5.2406944E1,-5.706262E-1,1.7501425E-2],"split_indices":[0,0,0,0,0,0,0,0,0],"split_type":[0,0,0,0,0,0,0,0,0],"sum_hessian":[1.6E2,2.6E1,1.34E2,2.4E1,2E0,4E0,1.3E2,3E0,1.27E2],"tree_param":{"num_deleted":"0","num_feature":"1","num_nodes":"9","size_leaf_vector":"1"}},{"base_weights":[4.0426213E-2,8.7004185E-1,-4.4797933E-1,1.4683281E-1,4.3979874E-1,-5.0614804E-2,-8.002549E-1,-4.714608E-2,1.1593068E-1,-1.8143794E-2,7.975414E-2,-4.5910377E-2,7.555043E-2],"categories":[],"categories_nodes":[],"categories_segments":[],"categories_sizes":[],"default_left":[0,0,0,0,0,0,0,0,0,0,0,0,0],"id":56,"left_children":[1,3,5,7,-1,9,11,-1,-1,-1,-1,-1,-1],"loss_changes":[6.562517E1,3.4263486E2,1.423764E1,1.347219E2,0E0,2.5759296E1,1.610888E1,0E0,0E0,0E0,0E0,0E0,0E0],"parents":[2147483647,0,0,1,1,2,2,3,3,5,5,6,6],"right_children":[2,4,6,8,-1,10,12,-1,-1,-1,-1,-1,-1],"split_conditions":[5.697778E1,5.51E1,9.665667E1,5.3379105E1,4.3979874E-1,8.999E1,1.8399E2,-4.714608E-2,1.1593068E-1,-1.8143794E-2,7.975414E-2,-4.5910377E-2,7.555043E-2],"split_indices":[0,0,0,0,0,0,0,0,0,0,0,0,0],"split_type":[0,0,0,0,0,0,0,0,0,0,0,0,0],"sum_hessian":[1.6E2,5.9E1,1.01E2,5.5E1,4E0,4.8E1,5.3E1,3.7E1,1.8E1,4.1E1,7E0,5.1E1,2E0],"tree_param":{"num_deleted":"0","num_feature":"1","num_nodes":"13","size_leaf_vector":"1"}},{"base_weights":[4.2130493E-2,8.350159E-1,-4.2468572E-1,1.4071918E-1,4.222068E-1,4.8549075E-2,-6.948125E-1,5.2242067E-2,-1.3231394E-1,-1.0581205E-1,8.212631E-3,-2.0626472E-1,-2.602137E-2],"categories":[],"categories_nodes":[],"categories_segments":[],"categories_sizes":[],"default_left":[0,0,0,0,0,0,0,0,0,0,0,0,0],"id":57,"left_children":[1,3,5,7,-1,9,11,-1,-1,-1,-1,-1,-1],"loss_changes":[5.9945835E1,3.15791E2,1.3072737E1,1.4387297E2,0E0,9.865606E0,3.6737686E1,0E0,0E0,0E0,0E0,0E0,0E0],"parents":[2147483647,0,0,1,1,2,2,3,3,5,5,6,6],"right_children":[2,4,6,8,-1,10,12,-1,-1,-1,-1,-1,-1],"split_conditions":[5.697778E1,5.51E1,6.99E1,5.39E1,4.222068E-1,5.99E1,8.9E1,5.2242067E-2,-1.3231394E-1,-1.0581205E-1,8.212631E-3,-2.0626472E-1,-2.602137E-2],"split_indices":[0,0,0,0,0,0,0,0,0,0,0,0,0],"split_type":[0,0,0,0,0,0,0,0,0,0,0,0,0],"sum_hessian":[1.6E2,5.9E1,1.01E2,5.5E1,4E0,3.7E1,6.4E1,4.2E1,1.3E1,1E0,3.6E1,2E0,6.2E1],"tree_param":{"num_deleted":"0","num_feature":"1","num_nodes":"13","size_leaf_vector":"1"}},{"base_weights":[4.0099934E-2,-1.3594071E0,3.197043E-1,-5.8292147E-2,-1.2596531E-1,4.441701E-1,-9.594862E-3,-5.4941887E-1,1.6678352E-2],"categories":[],"categories_nodes":[],"categories_segments":[],"categories_sizes":[],"default_left":[0,0,0,0,0,0,0,0,0],"id":58,"left_children":[1,3,5,-1,-1,-1,7,-1,-1],"loss_changes":[6.343524E1,3.1247864E0,3.8078772E2,0E0,0E0,0E0,4.9720773E2,0E0,0E0],"parents":[2147483647,0,0,1,1,2,2,6,6],"right_children":[2,4,6,-1,-1,-1,8,-1,-1],"split_conditions":[5.0357143E1,4.991E1,5.1233334E1,-5.8292147E-2,-1.2596531E-1,4.441701E-1,5.2406944E1,-5.4941887E-1,1.6678352E-2],"split_indices":[0,0,0,0,0,0,0,0,0],"split_type":[0,0,0,0,0,0,0,0,0],"sum_hessian":[1.6E2,2.6E1,1.34E2,2.4E1,2E0,4E0,1.3E2,3E0,1.27E2],"tree_param":{"num_deleted":"0","num_feature":"1","num_nodes":"9","size_leaf_vector":"1"}},{"base_weights":[3.640034E-2,8.171157E-1,-4.2320088E-1,-9.0957296E-1,3.634379E0,-1.10139154E-1,-8.172982E-1,2.122262E-2,-6.177451E-1,8.752204E-1,3.3932712E-2,-1.7745256E-2,2.5052777E-2,-8.120333E-2,-1.5809117E-2],"categories":[],"categories_nodes":[],"categories_segments":[],"categories_sizes":[],"default_left":[0,0,0,0,0,0,0,0,0,0,0,0,0,0,0],"id":59,"left_children":[1,3,5,7,9,11,13,-1,-1,-1,-1,-1,-1,-1,-1],"loss_changes":[5.811546E1,2.9517792E2,1.2494415E1,5.8544165E2,9.310283E2,8.854608E0,1.7679298E1,0E0,0E0,0E0,0E0,0E0,0E0,0E0,0E0],"parents":[2147483647,0,0,1,1,2,2,3,3,4,4,5,5,6,6],"right_children":[2,4,6,8,10,12,14,-1,-1,-1,-1,-1,-1,-1,-1],"split_conditions":[5.697778E1,5.3379105E1,9.95E1,5.2566666E1,5.3709522E1,8.999E1,1.1E2,2.122262E-2,-6.177451E-1,8.752204E-1,3.3932712E-2,-1.7745256E-2,2.5052777E-2,-8.120333E-2,-1.5809117E-2],"split_indices":[0,0,0,0,0,0,0,0,0,0,0,0,0,0,0],"split_type":[0,0,0,0,0,0,0,0,0,0,0,0,0,0,0],"sum_hessian":[1.6E2,5.9E1,1.01E2,3.7E1,2.2E1,5.7E1,4.4E1,3.4E1,3E0,3E0,1.9E1,4.1E1,1.6E1,1.6E1,2.8E1],"tree_param":{"num_deleted":"0","num_feature":"1","num_nodes":"15","size_leaf_vector":"1"}},{"base_weights":[3.596464E-2,-1.3186979E0,3.0663073E-1,-5.6512814E-2,-1.2247391E-1,4.597023E0,-3.0885917E-1,9.053008E-3,6.331389E-1,-1.2852058E-1,-3.6249118E-4],"categories":[],"categories_nodes":[],"categories_segments":[],"categories_sizes":[],"default_left":[0,0,0,0,0,0,0,0,0,0,0],"id":60,"left_children":[1,3,5,-1,-1,7,9,-1,-1,-1,-1],"loss_changes":[5.943681E1,2.9847832E0,3.5791342E2,0E0,0E0,6.032145E2,8.115189E1,0E0,0E0,0E0,0E0],"parents":[2147483647,0,0,1,1,2,2,5,5,6,6],"right_children":[2,4,6,-1,-1,8,10,-1,-1,-1,-1],"split_conditions":[5.0357143E1,4.991E1,5.39E1,-5.6512814E-2,-1.2247391E-1,5.3379105E1,5.51E1,9.053008E-3,6.331389E-1,-1.2852058E-1,-3.6249118E-4],"split_indices":[0,0,0,0,0,0,0,0,0,0,0],"split_type":[0,0,0,0,0,0,0,0,0,0,0],"sum_hessian":[1.6E2,2.6E1,1.34E2,2.4E1,2E0,1.6E1,1.18E2,1.1E1,5E0,1.3E1,1.05E2],"tree_param":{"num_deleted":"0","num_feature":"1","num_nodes":"11","size_leaf_vector":"1"}},{"base_weights":[3.624291E-2,-1.2593921E0,2.9510146E-1,-5.3800203E-2,-1.18391454E-1,4.2519227E-1,-2.0462058E-2,-5.299509E-1,1.5513884E-2],"categories":[],"categories_nodes":[],"categories_segments":[],"categories_sizes":[],"default_left":[0,0,0,0,0,0,0,0,0],"id":61,"left_children":[1,3,5,-1,-1,-1,7,-1,-1],"loss_changes":[5.4368828E1,2.9406052E0,3.498753E2,0E0,0E0,0E0,4.6162476E2,0E0,0E0],"parents":[2147483647,0,0,1,1,2,2,6,6],"right_children":[2,4,6,-1,-1,-1,8,-1,-1],"split_conditions":[5.0357143E1,4.991E1,5.1233334E1,-5.3800203E-2,-1.18391454E-1,4.2519227E-1,5.2406944E1,-5.299509E-1,1.5513884E-2],"split_indices":[0,0,0,0,0,0,0,0,0],"split_type":[0,0,0,0,0,0,0,0,0],"sum_hessian":[1.6E2,2.6E1,1.34E2,2.4E1,2E0,4E0,1.3E2,3E0,1.27E2],"tree_param":{"num_deleted":"0","num_feature":"1","num_nodes":"9","size_leaf_vector":"1"}},{"base_weights":[3.2807134E-2,7.9850173E-1,-4.179231E-1,1.3645186E-1,4.02688E-1,-5.7414386E-2,-7.37312E-1,4.9020905E-2,-1.2327384E-1,-1.7618645E-2,7.491473E-2,-4.251613E-2,7.3365435E-2],"categories":[],"categories_nodes":[],"categories_segments":[],"categories_sizes":[],"default_left":[0,0,0,0,0,0,0,0,0,0,0,0,0],"id":62,"left_children":[1,3,5,7,-1,9,11,-1,-1,-1,-1,-1,-1],"loss_changes":[5.58983E1,2.8710162E2,1.1702202E1,1.25389824E2,0E0,2.301257E1,1.4701538E1,0E0,0E0,0E0,0E0,0E0,0E0],"parents":[2147483647,0,0,1,1,2,2,3,3,5,5,6,6],"right_children":[2,4,6,8,-1,10,12,-1,-1,-1,-1,-1,-1],"split_conditions":[5.697778E1,5.51E1,9.665667E1,5.39E1,4.02688E-1,8.999E1,1.8399E2,4.9020905E-2,-1.2327384E-1,-1.7618645E-2,7.491473E-2,-4.251613E-2,7.3365435E-2],"split_indices":[0,0,0,0,0,0,0,0,0,0,0,0,0],"split_type":[0,0,0,0,0,0,0,0,0,0,0,0,0],"sum_hessian":[1.6E2,5.9E1,1.01E2,5.5E1,4E0,4.8E1,5.3E1,4.2E1,1.3E1,4.1E1,7E0,5.1E1,2E0],"tree_param":{"num_deleted":"0","num_feature":"1","num_nodes":"13","size_leaf_vector":"1"}},{"base_weights":[3.3753958E-2,-1.2500049E0,2.902557E-1,-5.3570773E-2,-1.1607911E-1,4.344072E0,-2.913E-1,5.670579E-3,6.04069E-1,-1.1755041E-1,-8.257488E-4],"categories":[],"categories_nodes":[],"categories_segments":[],"categories_sizes":[],"default_left":[0,0,0,0,0,0,0,0,0,0,0],"id":63,"left_children":[1,3,5,-1,-1,7,9,-1,-1,-1,-1],"loss_changes":[5.337793E1,2.679676E0,3.1953064E2,0E0,0E0,5.551065E2,6.731242E1,0E0,0E0,0E0,0E0],"parents":[2147483647,0,0,1,1,2,2,5,5,6,6],"right_children":[2,4,6,-1,-1,8,10,-1,-1,-1,-1],"split_conditions":[5.0357143E1,4.991E1,5.39E1,-5.3570773E-2,-1.1607911E-1,5.3379105E1,5.51E1,5.670579E-3,6.04069E-1,-1.1755041E-1,-8.257488E-4],"split_indices":[0,0,0,0,0,0,0,0,0,0,0],"split_type":[0,0,0,0,0,0,0,0,0,0,0],"sum_hessian":[1.6E2,2.6E1,1.34E2,2.4E1,2E0,1.6E1,1.18E2,1.1E1,5E0,1.3E1,1.05E2],"tree_param":{"num_deleted":"0","num_feature":"1","num_nodes":"11","size_leaf_vector":"1"}},{"base_weights":[3.4064524E-2,7.6349336E-1,-3.953452E-1,1.276474E-1,3.8661346E-1,4.7797505E-2,-6.4833105E-1,4.4807233E-2,-1.1209273E-1,-1.03057764E-1,8.025157E-3,-1.9924393E-1,-2.3957843E-2],"categories":[],"categories_nodes":[],"categories_segments":[],"categories_sizes":[],"default_left":[0,0,0,0,0,0,0,0,0,0,0,0,0],"id":64,"left_children":[1,3,5,7,-1,9,11,-1,-1,-1,-1,-1,-1],"loss_changes":[5.073088E1,2.6487708E2,1.1466088E1,1.0398255E2,0E0,9.363073E0,3.4780373E1,0E0,0E0,0E0,0E0,0E0,0E0],"parents":[2147483647,0,0,1,1,2,2,3,3,5,5,6,6],"right_children":[2,4,6,8,-1,10,12,-1,-1,-1,-1,-1,-1],"split_conditions":[5.697778E1,5.51E1,6.99E1,5.39E1,3.8661346E-1,5.99E1,8.9E1,4.4807233E-2,-1.1209273E-1,-1.03057764E-1,8.025157E-3,-1.9924393E-1,-2.3957843E-2],"split_indices":[0,0,0,0,0,0,0,0,0,0,0,0,0],"split_type":[0,0,0,0,0,0,0,0,0,0,0,0,0],"sum_hessian":[1.6E2,5.9E1,1.01E2,5.5E1,4E0,3.7E1,6.4E1,4.2E1,1.3E1,1E0,3.6E1,2E0,6.2E1],"tree_param":{"num_deleted":"0","num_feature":"1","num_nodes":"13","size_leaf_vector":"1"}},{"base_weights":[3.2368112E-2,-1.2369357E0,2.8598914E-1,-5.315013E-2,-1.13703385E-1,4.0420467E-1,-1.3831535E-2,-5.138089E-1,1.5348745E-2],"categories":[],"categories_nodes":[],"categories_segments":[],"categories_sizes":[],"default_left":[0,0,0,0,0,0,0,0,0],"id":65,"left_children":[1,3,5,-1,-1,-1,7,-1,-1],"loss_changes":[5.218322E1,2.4532356E0,3.157462E2,0E0,0E0,0E0,4.3443625E2,0E0,0E0],"parents":[2147483647,0,0,1,1,2,2,6,6],"right_children":[2,4,6,-1,-1,-1,8,-1,-1],"split_conditions":[5.0357143E1,4.991E1,5.1233334E1,-5.315013E-2,-1.13703385E-1,4.0420467E-1,5.2406944E1,-5.138089E-1,1.5348745E-2],"split_indices":[0,0,0,0,0,0,0,0,0],"split_type":[0,0,0,0,0,0,0,0,0],"sum_hessian":[1.6E2,2.6E1,1.34E2,2.4E1,2E0,4E0,1.3E2,3E0,1.27E2],"tree_param":{"num_deleted":"0","num_feature":"1","num_nodes":"9","size_leaf_vector":"1"}},{"base_weights":[2.9127963E-2,7.477832E-1,-3.9389598E-1,-8.2172024E-1,3.3083634E0,2.7962083E-2,-6.3446075E-1,2.3941804E-2,-5.998079E-1,7.913282E-1,3.1965263E-2,-1.0086503E-1,6.8880543E-3,-1.5474752E-1,-2.1119015E-2],"categories":[],"categories_nodes":[],"categories_segments":[],"categories_sizes":[],"default_left":[0,0,0,0,0,0,0,0,0,0,0,0,0,0,0],"id":66,"left_children":[1,3,5,7,9,11,13,-1,-1,-1,-1,-1,-1,-1,-1],"loss_changes":[4.92399E1,2.4384894E2,1.0369125E1,5.579976E2,7.5835345E2,8.811482E0,3.2611164E1,0E0,0E0,0E0,0E0,0E0,0E0,0E0,0E0],"parents":[2147483647,0,0,1,1,2,2,3,3,4,4,5,5,6,6],"right_children":[2,4,6,8,10,12,14,-1,-1,-1,-1,-1,-1,-1,-1],"split_conditions":[5.697778E1,5.3379105E1,6.99E1,5.2566666E1,5.3709522E1,5.99E1,8.999E1,2.3941804E-2,-5.998079E-1,7.913282E-1,3.1965263E-2,-1.0086503E-1,6.8880543E-3,-1.5474752E-1,-2.1119015E-2],"split_indices":[0,0,0,0,0,0,0,0,0,0,0,0,0,0,0],"split_type":[0,0,0,0,0,0,0,0,0,0,0,0,0,0,0],"sum_hessian":[1.6E2,5.9E1,1.01E2,3.7E1,2.2E1,3.7E1,6.4E1,3.4E1,3E0,3E0,1.9E1,1E0,3.6E1,4E0,6E1],"tree_param":{"num_deleted":"0","num_feature":"1","num_nodes":"15","size_leaf_vector":"1"}},{"base_weights":[2.7532235E-2,-1.204324E0,2.7369955E-1,-5.1748138E-2,-1.1071133E-1,3.8707885E-1,-1.3423264E-2,-4.9543887E-1,1.4795572E-2],"categories":[],"categories_nodes":[],"categories_segments":[],"categories_sizes":[],"default_left":[0,0,0,0,0,0,0,0,0],"id":67,"left_children":[1,3,5,-1,-1,-1,7,-1,-1],"loss_changes":[4.9151703E1,2.3263931E0,2.8957065E2,0E0,0E0,0E0,4.0392004E2,0E0,0E0],"parents":[2147483647,0,0,1,1,2,2,6,6],"right_children":[2,4,6,-1,-1,-1,8,-1,-1],"split_conditions":[5.0357143E1,4.991E1,5.1233334E1,-5.1748138E-2,-1.1071133E-1,3.8707885E-1,5.2406944E1,-4.9543887E-1,1.4795572E-2],"split_indices":[0,0,0,0,0,0,0,0,0],"split_type":[0,0,0,0,0,0,0,0,0],"sum_hessian":[1.6E2,2.6E1,1.34E2,2.4E1,2E0,4E0,1.3E2,3E0,1.27E2],"tree_param":{"num_deleted":"0","num_feature":"1","num_nodes":"9","size_leaf_vector":"1"}},{"base_weights":[2.4565386E-2,7.3146236E-1,-3.9149722E-1,1.2538041E-1,3.686644E-1,-2.9566747E-1,-1.4805381E0,4.3904044E-2,-1.0977205E-1,-2.3867777E-2,6.4820826E-2,-1.3442516E-1,7.144525E-2],"categories":[],"categories_nodes":[],"categories_segments":[],"categories_sizes":[],"default_left":[0,0,0,0,0,0,0,0,0,0,0,0,0],"id":68,"left_children":[1,3,5,7,-1,9,11,-1,-1,-1,-1,-1,-1],"loss_changes":[4.7638626E1,2.4060498E2,1.0207227E1,9.975324E1,0E0,2.8098804E1,3.195766E1,0E0,0E0,0E0,0E0,0E0,0E0],"parents":[2147483647,0,0,1,1,2,2,3,3,5,5,6,6],"right_children":[2,4,6,8,-1,10,12,-1,-1,-1,-1,-1,-1],"split_conditions":[5.697778E1,5.51E1,1.7999E2,5.39E1,3.686644E-1,1.23331665E2,1.8399E2,4.3904044E-2,-1.0977205E-1,-2.3867777E-2,6.4820826E-2,-1.3442516E-1,7.144525E-2],"split_indices":[0,0,0,0,0,0,0,0,0,0,0,0,0],"split_type":[0,0,0,0,0,0,0,0,0,0,0,0,0],"sum_hessian":[1.6E2,5.9E1,1.01E2,5.5E1,4E0,9.4E1,7E0,4.2E1,1.3E1,8.5E1,9E0,5E0,2E0],"tree_param":{"num_deleted":"0","num_feature":"1","num_nodes":"13","size_leaf_vector":"1"}},{"base_weights":[2.5080997E-2,-1.1924028E0,2.68392E-1,-5.1371623E-2,-1.08484425E-1,4.006376E0,-2.6786113E-1,6.9694365E-3,5.5363107E-1,-1.0467551E-1,-1.2105337E-3],"categories":[],"categories_nodes":[],"categories_segments":[],"categories_sizes":[],"default_left":[0,0,0,0,0,0,0,0,0,0,0],"id":69,"left_children":[1,3,5,-1,-1,7,9,-1,-1,-1,-1],"loss_changes":[4.801261E1,2.1238174E0,2.716814E2,0E0,0E0,4.6298294E2,5.2882915E1,0E0,0E0,0E0,0E0],"parents":[2147483647,0,0,1,1,2,2,5,5,6,6],"right_children":[2,4,6,-1,-1,8,10,-1,-1,-1,-1],"split_conditions":[5.0357143E1,4.991E1,5.39E1,-5.1371623E-2,-1.08484425E-1,5.3379105E1,5.51E1,6.9694365E-3,5.5363107E-1,-1.0467551E-1,-1.2105337E-3],"split_indices":[0,0,0,0,0,0,0,0,0,0,0],"split_type":[0,0,0,0,0,0,0,0,0,0,0],"sum_hessian":[1.6E2,2.6E1,1.34E2,2.4E1,2E0,1.6E1,1.18E2,1.1E1,5E0,1.3E1,1.05E2],"tree_param":{"num_deleted":"0","num_feature":"1","num_nodes":"11","size_leaf_vector":"1"}},{"base_weights":[2.5658181E-2,-1.1387035E0,2.5834045E-1,-4.8905794E-2,-1.04868285E-1,3.6956087E-1,-1.5878815E-2,-4.7876763E-1,1.414894E-2],"categories":[],"categories_nodes":[],"categories_segments":[],"categories_sizes":[],"default_left":[0,0,0,0,0,0,0,0,0],"id":70,"left_children":[1,3,5,-1,-1,-1,7,-1,-1],"loss_changes":[4.391331E1,2.1051636E0,2.641736E2,0E0,0E0,0E0,3.7696634E2,0E0,0E0],"parents":[2147483647,0,0,1,1,2,2,6,6],"right_children":[2,4,6,-1,-1,-1,8,-1,-1],"split_conditions":[5.0357143E1,4.991E1,5.1233334E1,-4.8905794E-2,-1.04868285E-1,3.6956087E-1,5.2406944E1,-4.7876763E-1,1.414894E-2],"split_indices":[0,0,0,0,0,0,0,0,0],"split_type":[0,0,0,0,0,0,0,0,0],"sum_hessian":[1.6E2,2.6E1,1.34E2,2.4E1,2E0,4E0,1.3E2,3E0,1.27E2],"tree_param":{"num_deleted":"0","num_feature":"1","num_nodes":"9","size_leaf_vector":"1"}},{"base_weights":[2.2829868E-2,7.15675E-1,-3.8494992E-1,1.3572274E-1,3.534003E-1,-1.02394864E-1,-7.405776E-1,-4.521881E-2,8.3367966E-2,-1.2127891E-2,4.767218E-2,-8.669152E-2,-1.8411804E-2],"categories":[],"categories_nodes":[],"categories_segments":[],"categories_sizes":[],"default_left":[0,0,0,0,0,0,0,0,0,0,0,0,0],"id":71,"left_children":[1,3,5,7,-1,9,11,-1,-1,-1,-1,-1,-1],"loss_changes":[4.5762547E1,2.200836E2,1.0173574E1,9.071892E1,0E0,8.814652E0,1.6003855E1,0E0,0E0,0E0,0E0,0E0,0E0],"parents":[2147483647,0,0,1,1,2,2,3,3,5,5,6,6],"right_children":[2,4,6,8,-1,10,12,-1,-1,-1,-1,-1,-1],"split_conditions":[5.697778E1,5.51E1,9.95E1,5.2406944E1,3.534003E-1,9.7588234E1,1.025E2,-4.521881E-2,8.3367966E-2,-1.2127891E-2,4.767218E-2,-8.669152E-2,-1.8411804E-2],"split_indices":[0,0,0,0,0,0,0,0,0,0,0,0,0],"split_type":[0,0,0,0,0,0,0,0,0,0,0,0,0],"sum_hessian":[1.6E2,5.9E1,1.01E2,5.5E1,4E0,5.7E1,4.4E1,3.3E1,2.2E1,5.1E1,6E0,1.1E1,3.3E1],"tree_param":{"num_deleted":"0","num_feature":"1","num_nodes":"13","size_leaf_vector":"1"}},{"base_weights":[2.3688326E-2,6.8641704E-1,-3.6638436E-1,1.296179E-1,3.3926424E-1,-3.812062E-2,-6.574684E-1,4.2412426E-2,-1.0434315E-1,-1.6192367E-2,7.333548E-2,-1.2658206E-1,-2.4879148E-2],"categories":[],"categories_nodes":[],"categories_segments":[],"categories_sizes":[],"default_left":[0,0,0,0,0,0,0,0,0,0,0,0,0],"id":72,"left_children":[1,3,5,7,-1,9,11,-1,-1,-1,-1,-1,-1],"loss_changes":[4.1871983E1,2.0287115E2,9.721275E0,9.096872E1,0E0,2.154353E1,1.492156E1,0E0,0E0,0E0,0E0,0E0,0E0],"parents":[2147483647,0,0,1,1,2,2,3,3,5,5,6,6],"right_children":[2,4,6,8,-1,10,12,-1,-1,-1,-1,-1,-1],"split_conditions":[5.697778E1,5.51E1,9.665667E1,5.39E1,3.3926424E-1,8.999E1,9.7588234E1,4.2412426E-2,-1.0434315E-1,-1.6192367E-2,7.333548E-2,-1.2658206E-1,-2.4879148E-2],"split_indices":[0,0,0,0,0,0,0,0,0,0,0,0,0],"split_type":[0,0,0,0,0,0,0,0,0,0,0,0,0],"sum_hessian":[1.6E2,5.9E1,1.01E2,5.5E1,4E0,4.8E1,5.3E1,4.2E1,1.3E1,4.1E1,7E0,3E0,5E1],"tree_param":{"num_deleted":"0","num_feature":"1","num_nodes":"13","size_leaf_vector":"1"}},{"base_weights":[2.3640668E-2,-1.0847623E0,2.4514614E-1,-4.6423666E-2,-1.0127916E-1,5.3128896E0,-1.1591556E-1,-8.547569E-3,1.2295904E0,-5.85025E-1,1.2935775E-2],"categories":[],"categories_nodes":[],"categories_segments":[],"categories_sizes":[],"default_left":[0,0,0,0,0,0,0,0,0,0,0],"id":73,"left_children":[1,3,5,-1,-1,7,9,-1,-1,-1,-1],"loss_changes":[3.9794216E1,2.0893764E0,2.4763452E2,0E0,0E0,9.5570667E2,5.5420013E2,0E0,0E0,0E0,0E0],"parents":[2147483647,0,0,1,1,2,2,5,5,6,6],"right_children":[2,4,6,-1,-1,8,10,-1,-1,-1,-1],"split_conditions":[5.0357143E1,4.991E1,5.2566666E1,-4.6423666E-2,-1.0127916E-1,5.2406944E1,5.3379105E1,-8.547569E-3,1.2295904E0,-5.85025E-1,1.2935775E-2],"split_indices":[0,0,0,0,0,0,0,0,0,0,0],"split_type":[0,0,0,0,0,0,0,0,0,0,0],"sum_hessian":[1.6E2,2.6E1,1.34E2,2.4E1,2E0,8E0,1.26E2,7E0,1E0,3E0,1.23E2],"tree_param":{"num_deleted":"0","num_feature":"1","num_nodes":"11","size_leaf_vector":"1"}},{"base_weights":[2.5572173E-2,6.8367636E-1,-3.6179864E-1,-6.9401366E-1,2.9301348E0,-4.108212E-1,6.9644295E-2,2.6677718E-2,-5.630865E-1,7.329586E-1,2.1891031E-2,-1.3531744E-2,-1.2809841E-1],"categories":[],"categories_nodes":[],"categories_segments":[],"categories_sizes":[],"default_left":[0,0,0,0,0,0,0,0,0,0,0,0,0],"id":74,"left_children":[1,3,5,7,9,11,-1,-1,-1,-1,-1,-1,-1],"loss_changes":[4.129114E1,1.8772896E2,9.346175E0,4.989672E2,6.6592816E2,2.9462786E1,0E0,0E0,0E0,0E0,0E0,0E0,0E0],"parents":[2147483647,0,0,1,1,2,2,3,3,4,4,5,5],"right_children":[2,4,6,8,10,12,-1,-1,-1,-1,-1,-1,-1],"split_conditions":[5.697778E1,5.3379105E1,1.8399E2,5.2566666E1,5.3709522E1,1.7999E2,6.9644295E-2,2.6677718E-2,-5.630865E-1,7.329586E-1,2.1891031E-2,-1.3531744E-2,-1.2809841E-1],"split_indices":[0,0,0,0,0,0,0,0,0,0,0,0,0],"split_type":[0,0,0,0,0,0,0,0,0,0,0,0,0],"sum_hessian":[1.6E2,5.9E1,1.01E2,3.7E1,2.2E1,9.9E1,2E0,3.4E1,3E0,3E0,1.9E1,9.4E1,5E0],"tree_param":{"num_deleted":"0","num_feature":"1","num_nodes":"13","size_leaf_vector":"1"}},{"base_weights":[2.5203208E-2,4.2299262E-1,-5.6880873E-1,-8.870586E-1,1.1123481E0,-1.8712083E-1,-4.0865585E-1,1.088885E-2,-4.613885E-1,1.1981838E0,1.8462641E-2,4.9946465E-2,-3.0122101E-2],"categories":[],"categories_nodes":[],"categories_segments":[],"categories_sizes":[],"default_left":[0,0,0,0,0,0,0,0,0,0,0,0,0],"id":75,"left_children":[1,3,5,7,9,-1,11,-1,-1,-1,-1,-1,-1],"loss_changes":[3.8283558E1,8.858654E1,3.1507696E1,3.153235E2,1.0779169E3,0E0,1.7786339E1,0E0,0E0,0E0,0E0,0E0,0E0],"parents":[2147483647,0,0,1,1,2,2,3,3,4,4,6,6],"right_children":[2,4,6,8,10,-1,12,-1,-1,-1,-1,-1,-1],"split_conditions":[6.99E1,5.2406944E1,8.9E1,5.1233334E1,5.2566666E1,-1.8712083E-1,9.2594E1,1.088885E-2,-4.613885E-1,1.1981838E0,1.8462641E-2,4.9946465E-2,-3.0122101E-2],"split_indices":[0,0,0,0,0,0,0,0,0,0,0,0,0],"split_type":[0,0,0,0,0,0,0,0,0,0,0,0,0],"sum_hessian":[1.6E2,9.6E1,6.4E1,3.3E1,6.3E1,2E0,6.2E1,3E1,3E0,1E0,6.2E1,7E0,5.5E1],"tree_param":{"num_deleted":"0","num_feature":"1","num_nodes":"13","size_leaf_vector":"1"}},{"base_weights":[2.7662674E-2,-1.0721701E0,2.4742432E-1,-4.5998536E-2,-9.9155426E-2,3.5373017E-1,-1.5043761E-2,-4.4408646E-1,1.3107884E-2],"categories":[],"categories_nodes":[],"categories_segments":[],"categories_sizes":[],"default_left":[0,0,0,0,0,0,0,0,0],"id":76,"left_children":[1,3,5,-1,-1,-1,7,-1,-1],"loss_changes":[3.9179153E1,1.918993E0,2.4201515E2,0E0,0E0,0E0,3.243078E2,0E0,0E0],"parents":[2147483647,0,0,1,1,2,2,6,6],"right_children":[2,4,6,-1,-1,-1,8,-1,-1],"split_conditions":[5.0357143E1,4.991E1,5.1233334E1,-4.5998536E-2,-9.9155426E-2,3.5373017E-1,5.2406944E1,-4.4408646E-1,1.3107884E-2],"split_indices":[0,0,0,0,0,0,0,0,0],"split_type":[0,0,0,0,0,0,0,0,0],"sum_hessian":[1.6E2,2.6E1,1.34E2,2.4E1,2E0,4E0,1.3E2,3E0,1.27E2],"tree_param":{"num_deleted":"0","num_feature":"1","num_nodes":"9","size_leaf_vector":"1"}},{"base_weights":[2.4898127E-2,8.345012E-1,-2.6785675E-1,-6.478734E-1,1.0083791E1,-2.051627E0,-2.9737527E-2,2.6904542E-2,-5.4315466E-1,7.042887E-1,6.932742E-2,-6.321696E-2,-3.071592E-1,3.230377E-1,-1.7380368E-2],"categories":[],"categories_nodes":[],"categories_segments":[],"categories_sizes":[],"default_left":[0,0,0,0,0,0,0,0,0,0,0,0,0,0,0],"id":77,"left_children":[1,3,5,7,9,11,13,-1,-1,-1,-1,-1,-1,-1,-1],"loss_changes":[3.8382984E1,5.9610223E2,5.0484234E1,4.6621094E2,1.8930676E2,3.733019E1,2.2093776E2,0E0,0E0,0E0,0E0,0E0,0E0,0E0,0E0],"parents":[2147483647,0,0,1,1,2,2,3,3,4,4,5,5,6,6],"right_children":[2,4,6,8,10,12,14,-1,-1,-1,-1,-1,-1,-1,-1],"split_conditions":[5.39E1,5.3379105E1,5.51E1,5.2566666E1,5.3709522E1,5.445E1,5.697778E1,2.6904542E-2,-5.4315466E-1,7.042887E-1,6.932742E-2,-6.321696E-2,-3.071592E-1,3.230377E-1,-1.7380368E-2],"split_indices":[0,0,0,0,0,0,0,0,0,0,0,0,0,0,0],"split_type":[0,0,0,0,0,0,0,0,0,0,0,0,0,0,0],"sum_hessian":[1.6E2,4.2E1,1.18E2,3.7E1,5E0,1.3E1,1.05E2,3.4E1,3E0,3E0,2E0,1.2E1,1E0,4E0,1.01E2],"tree_param":{"num_deleted":"0","num_feature":"1","num_nodes":"15","size_leaf_vector":"1"}},{"base_weights":[2.4849998E-2,-1.0498453E0,2.3960498E-1,-4.5082E-2,-9.674705E-2,5.140473E0,-1.0958728E-1,-2.6555897E-3,1.1672288E0,-5.227863E-1,1.1252147E-2],"categories":[],"categories_nodes":[],"categories_segments":[],"categories_sizes":[],"default_left":[0,0,0,0,0,0,0,0,0,0,0],"id":78,"left_children":[1,3,5,-1,-1,7,9,-1,-1,-1,-1],"loss_changes":[3.7409733E1,1.7971287E0,2.3159494E2,0E0,0E0,8.5214087E2,4.4204364E2,0E0,0E0,0E0,0E0],"parents":[2147483647,0,0,1,1,2,2,5,5,6,6],"right_children":[2,4,6,-1,-1,8,10,-1,-1,-1,-1],"split_conditions":[5.0357143E1,4.991E1,5.2566666E1,-4.5082E-2,-9.674705E-2,5.2406944E1,5.3379105E1,-2.6555897E-3,1.1672288E0,-5.227863E-1,1.1252147E-2],"split_indices":[0,0,0,0,0,0,0,0,0,0,0],"split_type":[0,0,0,0,0,0,0,0,0,0,0],"sum_hessian":[1.6E2,2.6E1,1.34E2,2.4E1,2E0,8E0,1.26E2,7E0,1E0,3E0,1.23E2],"tree_param":{"num_deleted":"0","num_feature":"1","num_nodes":"11","size_leaf_vector":"1"}},{"base_weights":[2.6782647E-2,8.3687586E-1,-2.6616517E-1,-5.84455E-1,9.699159E0,-1.9859486E0,-3.6512986E-2,2.5778938E-2,-5.031819E-1,6.774559E-1,6.664136E-2,-6.081854E-2,-2.997615E-1,3.0966613E-1,-1.7076956E-2],"categories":[],"categories_nodes":[],"categories_segments":[],"categories_sizes":[],"default_left":[0,0,0,0,0,0,0,0,0,0,0,0,0,0,0],"id":79,"left_children":[1,3,5,7,9,11,13,-1,-1,-1,-1,-1,-1,-1,-1],"loss_changes":[3.843047E1,5.473069E2,4.692678E1,4.0143054E2,1.752016E2,3.5903927E1,2.035431E2,0E0,0E0,0E0,0E0,0E0,0E0,0E0,0E0],"parents":[2147483647,0,0,1,1,2,2,3,3,4,4,5,5,6,6],"right_children":[2,4,6,8,10,12,14,-1,-1,-1,-1,-1,-1,-1,-1],"split_conditions":[5.39E1,5.3379105E1,5.51E1,5.2566666E1,5.3709522E1,5.445E1,5.697778E1,2.5778938E-2,-5.031819E-1,6.774559E-1,6.664136E-2,-6.081854E-2,-2.997615E-1,3.0966613E-1,-1.7076956E-2],"split_indices":[0,0,0,0,0,0,0,0,0,0,0,0,0,0,0],"split_type":[0,0,0,0,0,0,0,0,0,0,0,0,0,0,0],"sum_hessian":[1.6E2,4.2E1,1.18E2,3.7E1,5E0,1.3E1,1.05E2,3.4E1,3E0,3E0,2E0,1.2E1,1E0,4E0,1.01E2],"tree_param":{"num_deleted":"0","num_feature":"1","num_nodes":"15","size_leaf_vector":"1"}},{"base_weights":[2.6677422E-2,-1.0274298E0,2.3730126E-1,-4.4155437E-2,-9.438143E-2,3.6584513E0,-2.534286E-1,2.5684891E-2,4.6691084E-1,-9.562039E-2,-1.5963672E-3],"categories":[],"categories_nodes":[],"categories_segments":[],"categories_sizes":[],"default_left":[0,0,0,0,0,0,0,0,0,0,0],"id":80,"left_children":[1,3,5,-1,-1,7,9,-1,-1,-1,-1],"loss_changes":[3.5989048E1,1.684927E0,2.2757333E2,0E0,0E0,2.9884784E2,4.366739E1,0E0,0E0,0E0,0E0],"parents":[2147483647,0,0,1,1,2,2,5,5,6,6],"right_children":[2,4,6,-1,-1,8,10,-1,-1,-1,-1],"split_conditions":[5.0357143E1,4.991E1,5.39E1,-4.4155437E-2,-9.438143E-2,5.3379105E1,5.51E1,2.5684891E-2,4.6691084E-1,-9.562039E-2,-1.5963672E-3],"split_indices":[0,0,0,0,0,0,0,0,0,0,0],"split_type":[0,0,0,0,0,0,0,0,0,0,0],"sum_hessian":[1.6E2,2.6E1,1.34E2,2.4E1,2E0,1.6E1,1.18E2,1.1E1,5E0,1.3E1,1.05E2],"tree_param":{"num_deleted":"0","num_feature":"1","num_nodes":"11","size_leaf_vector":"1"}},{"base_weights":[2.6938884E-2,4.0082482E-1,-5.314284E-1,-8.017258E-1,1.033417E0,-2.8868878E0,-3.2964602E-1,1.1553426E-2,-4.302725E-1,1.1367615E0,1.6403353E-2,-1.804937E-1,-6.008027E-2,9.4404034E-2,-2.8068652E-2],"categories":[],"categories_nodes":[],"categories_segments":[],"categories_sizes":[],"default_left":[0,0,0,0,0,0,0,0,0,0,0,0,0,0,0],"id":81,"left_children":[1,3,5,7,9,11,13,-1,-1,-1,-1,-1,-1,-1,-1],"loss_changes":[3.3824284E1,7.461875E1,2.9942213E1,2.760163E2,9.722131E2,1.7545319E0,3.2408253E1,0E0,0E0,0E0,0E0,0E0,0E0,0E0,0E0],"parents":[2147483647,0,0,1,1,2,2,3,3,4,4,5,5,6,6],"right_children":[2,4,6,8,10,12,14,-1,-1,-1,-1,-1,-1,-1,-1],"split_conditions":[6.99E1,5.2406944E1,8.999E1,5.1233334E1,5.2566666E1,8.9E1,9.2594E1,1.1553426E-2,-4.302725E-1,1.1367615E0,1.6403353E-2,-1.804937E-1,-6.008027E-2,9.4404034E-2,-2.8068652E-2],"split_indices":[0,0,0,0,0,0,0,0,0,0,0,0,0,0,0],"split_type":[0,0,0,0,0,0,0,0,0,0,0,0,0,0,0],"sum_hessian":[1.6E2,9.6E1,6.4E1,3.3E1,6.3E1,4E0,6E1,3E1,3E0,1E0,6.2E1,2E0,2E0,5E0,5.5E1],"tree_param":{"num_deleted":"0","num_feature":"1","num_nodes":"15","size_leaf_vector":"1"}},{"base_weights":[2.9071417E-2,-9.9231553E-1,2.3313345E-1,-4.2590577E-2,-9.162051E-2,3.3609024E-1,-1.63054E-2,-4.1413727E-1,1.2107412E-2],"categories":[],"categories_nodes":[],"categories_segments":[],"categories_sizes":[],"default_left":[0,0,0,0,0,0,0,0,0],"id":82,"left_children":[1,3,5,-1,-1,-1,7,-1,-1],"loss_changes":[3.3787975E1,1.6261215E0,2.1861072E2,0E0,0E0,0E0,2.8188605E2,0E0,0E0],"parents":[2147483647,0,0,1,1,2,2,6,6],"right_children":[2,4,6,-1,-1,-1,8,-1,-1],"split_conditions":[5.0357143E1,4.991E1,5.1233334E1,-4.2590577E-2,-9.162051E-2,3.3609024E-1,5.2406944E1,-4.1413727E-1,1.2107412E-2],"split_indices":[0,0,0,0,0,0,0,0,0],"split_type":[0,0,0,0,0,0,0,0,0],"sum_hessian":[1.6E2,2.6E1,1.34E2,2.4E1,2E0,4E0,1.3E2,3E0,1.27E2],"tree_param":{"num_deleted":"0","num_feature":"1","num_nodes":"9","size_leaf_vector":"1"}},{"base_weights":[2.6374366E-2,6.2456965E-1,-3.257638E-1,1.4024813E-1,5.924057E0,-3.738283E-1,6.924868E-2,1.7706804E-2,-2.9058972E-1,4.163768E-1,1.6206518E-1,-1.2073894E-2,-1.2035358E-1],"categories":[],"categories_nodes":[],"categories_segments":[],"categories_sizes":[],"default_left":[0,0,0,0,0,0,0,0,0,0,0,0,0],"id":83,"left_children":[1,3,5,7,9,11,-1,-1,-1,-1,-1,-1,-1],"loss_changes":[3.4117695E1,1.5316852E2,8.904764E0,7.33501E1,5.2476196E0,2.63288E1,0E0,0E0,0E0,0E0,0E0,0E0,0E0],"parents":[2147483647,0,0,1,1,2,2,3,3,4,4,5,5],"right_children":[2,4,6,8,10,12,-1,-1,-1,-1,-1,-1,-1],"split_conditions":[5.697778E1,5.51E1,1.8399E2,5.445E1,5.5425E1,1.7999E2,6.924868E-2,1.7706804E-2,-2.9058972E-1,4.163768E-1,1.6206518E-1,-1.2073894E-2,-1.2035358E-1],"split_indices":[0,0,0,0,0,0,0,0,0,0,0,0,0],"split_type":[0,0,0,0,0,0,0,0,0,0,0,0,0],"sum_hessian":[1.6E2,5.9E1,1.01E2,5.5E1,4E0,9.9E1,2E0,5.4E1,1E0,1E0,3E0,9.4E1,5E0],"tree_param":{"num_deleted":"0","num_feature":"1","num_nodes":"13","size_leaf_vector":"1"}},{"base_weights":[2.6561018E-2,7.677088E-1,-2.4147187E-1,-5.382151E-1,8.910608E0,-1.8445112E0,-2.7471663E-2,2.6440764E-2,-4.8700887E-1,6.328089E-1,4.7315598E-2,-5.5731382E-2,-2.8332496E-1,2.8717718E-1,-1.5504762E-2],"categories":[],"categories_nodes":[],"categories_segments":[],"categories_sizes":[],"default_left":[0,0,0,0,0,0,0,0,0,0,0,0,0,0,0],"id":84,"left_children":[1,3,5,7,9,11,13,-1,-1,-1,-1,-1,-1,-1,-1],"loss_changes":[3.2168346E1,4.620581E2,4.0772366E1,3.782641E2,1.6700827E2,3.2738453E1,1.7466966E2,0E0,0E0,0E0,0E0,0E0,0E0,0E0,0E0],"parents":[2147483647,0,0,1,1,2,2,3,3,4,4,5,5,6,6],"right_children":[2,4,6,8,10,12,14,-1,-1,-1,-1,-1,-1,-1,-1],"split_conditions":[5.39E1,5.3379105E1,5.51E1,5.2566666E1,5.3709522E1,5.445E1,5.697778E1,2.6440764E-2,-4.8700887E-1,6.328089E-1,4.7315598E-2,-5.5731382E-2,-2.8332496E-1,2.8717718E-1,-1.5504762E-2],"split_indices":[0,0,0,0,0,0,0,0,0,0,0,0,0,0,0],"split_type":[0,0,0,0,0,0,0,0,0,0,0,0,0,0,0],"sum_hessian":[1.6E2,4.2E1,1.18E2,3.7E1,5E0,1.3E1,1.05E2,3.4E1,3E0,3E0,2E0,1.2E1,1E0,4E0,1.01E2],"tree_param":{"num_deleted":"0","num_feature":"1","num_nodes":"15","size_leaf_vector":"1"}},{"base_weights":[2.617821E-2,-9.9018323E-1,2.2925659E-1,-4.266533E-2,-9.003808E-2,4.927167E0,-1.0547137E-1,4.1912796E-4,1.1069361E0,-5.4999644E-1,7.841969E-3],"categories":[],"categories_nodes":[],"categories_segments":[],"categories_sizes":[],"default_left":[0,0,0,0,0,0,0,0,0,0,0],"id":85,"left_children":[1,3,5,-1,-1,7,9,-1,-1,-1,-1],"loss_changes":[3.3457573E1,1.4590302E0,2.1281013E2,0E0,0E0,7.617538E2,3.6465738E2,0E0,0E0,0E0,0E0],"parents":[2147483647,0,0,1,1,2,2,5,5,6,6],"right_children":[2,4,6,-1,-1,8,10,-1,-1,-1,-1],"split_conditions":[5.0357143E1,4.991E1,5.2566666E1,-4.266533E-2,-9.003808E-2,5.2406944E1,5.3057896E1,4.1912796E-4,1.1069361E0,-5.4999644E-1,7.841969E-3],"split_indices":[0,0,0,0,0,0,0,0,0,0,0],"split_type":[0,0,0,0,0,0,0,0,0,0,0],"sum_hessian":[1.6E2,2.6E1,1.34E2,2.4E1,2E0,8E0,1.26E2,7E0,1E0,2E0,1.24E2],"tree_param":{"num_deleted":"0","num_feature":"1","num_nodes":"11","size_leaf_vector":"1"}},{"base_weights":[2.7555622E-2,7.6110655E-1,-2.3774055E-1,-4.9220526E-1,8.571897E0,-1.7837855E0,-3.1303115E-2,2.5291039E-2,-4.5509407E-1,6.087845E-1,4.5477044E-2,-5.3521086E-2,-2.7643785E-1,2.7537632E-1,-1.5125373E-2],"categories":[],"categories_nodes":[],"categories_segments":[],"categories_sizes":[],"default_left":[0,0,0,0,0,0,0,0,0,0,0,0,0,0,0],"id":86,"left_children":[1,3,5,7,9,11,13,-1,-1,-1,-1,-1,-1,-1,-1],"loss_changes":[3.1512877E1,4.2516144E2,3.7924385E1,3.311258E2,1.54607E2,3.148328E1,1.6089445E2,0E0,0E0,0E0,0E0,0E0,0E0,0E0,0E0],"parents":[2147483647,0,0,1,1,2,2,3,3,4,4,5,5,6,6],"right_children":[2,4,6,8,10,12,14,-1,-1,-1,-1,-1,-1,-1,-1],"split_conditions":[5.39E1,5.3379105E1,5.51E1,5.2566666E1,5.3709522E1,5.445E1,5.697778E1,2.5291039E-2,-4.5509407E-1,6.087845E-1,4.5477044E-2,-5.3521086E-2,-2.7643785E-1,2.7537632E-1,-1.5125373E-2],"split_indices":[0,0,0,0,0,0,0,0,0,0,0,0,0,0,0],"split_type":[0,0,0,0,0,0,0,0,0,0,0,0,0,0,0],"sum_hessian":[1.6E2,4.2E1,1.18E2,3.7E1,5E0,1.3E1,1.05E2,3.4E1,3E0,3E0,2E0,1.2E1,1E0,4E0,1.01E2],"tree_param":{"num_deleted":"0","num_feature":"1","num_nodes":"15","size_leaf_vector":"1"}},{"base_weights":[2.7138814E-2,-9.699437E-1,2.2635429E-1,-4.183138E-2,-8.787985E-2,4.7813663E0,-9.8224156E-2,-7.057309E-4,1.0786303E0,-5.1649344E-1,7.4060555E-3],"categories":[],"categories_nodes":[],"categories_segments":[],"categories_sizes":[],"default_left":[0,0,0,0,0,0,0,0,0,0,0],"id":87,"left_children":[1,3,5,-1,-1,7,9,-1,-1,-1,-1],"loss_changes":[3.219967E1,1.3647308E0,2.0006157E2,0E0,0E0,7.250032E2,3.2163574E2,0E0,0E0,0E0,0E0],"parents":[2147483647,0,0,1,1,2,2,5,5,6,6],"right_children":[2,4,6,-1,-1,8,10,-1,-1,-1,-1],"split_conditions":[5.0357143E1,4.991E1,5.2566666E1,-4.183138E-2,-8.787985E-2,5.2406944E1,5.3057896E1,-7.057309E-4,1.0786303E0,-5.1649344E-1,7.4060555E-3],"split_indices":[0,0,0,0,0,0,0,0,0,0,0],"split_type":[0,0,0,0,0,0,0,0,0,0,0],"sum_hessian":[1.6E2,2.6E1,1.34E2,2.4E1,2E0,8E0,1.26E2,7E0,1E0,2E0,1.24E2],"tree_param":{"num_deleted":"0","num_feature":"1","num_nodes":"11","size_leaf_vector":"1"}},{"base_weights":[2.8509226E-2,7.53726E-1,-2.3378348E-1,-4.4912714E-1,8.246175E0,-1.7250426E0,-3.461922E-2,2.421405E-2,-4.2520833E-1,5.8567744E-1,4.371427E-2,-5.1392745E-2,-2.6971206E-1,2.6406512E-1,-1.4743211E-2],"categories":[],"categories_nodes":[],"categories_segments":[],"categories_sizes":[],"default_left":[0,0,0,0,0,0,0,0,0,0,0,0,0,0,0],"id":88,"left_children":[1,3,5,7,9,11,13,-1,-1,-1,-1,-1,-1,-1,-1],"loss_changes":[3.0801481E1,3.912332E2,3.528394E1,2.898267E2,1.4312564E2,3.0269184E1,1.4820212E2,0E0,0E0,0E0,0E0,0E0,0E0,0E0,0E0],"parents":[2147483647,0,0,1,1,2,2,3,3,4,4,5,5,6,6],"right_children":[2,4,6,8,10,12,14,-1,-1,-1,-1,-1,-1,-1,-1],"split_conditions":[5.39E1,5.3379105E1,5.51E1,5.2566666E1,5.3709522E1,5.445E1,5.697778E1,2.421405E-2,-4.2520833E-1,5.8567744E-1,4.371427E-2,-5.1392745E-2,-2.6971206E-1,2.6406512E-1,-1.4743211E-2],"split_indices":[0,0,0,0,0,0,0,0,0,0,0,0,0,0,0],"split_type":[0,0,0,0,0,0,0,0,0,0,0,0,0,0,0],"sum_hessian":[1.6E2,4.2E1,1.18E2,3.7E1,5E0,1.3E1,1.05E2,3.4E1,3E0,3E0,2E0,1.2E1,1E0,4E0,1.01E2],"tree_param":{"num_deleted":"0","num_feature":"1","num_nodes":"15","size_leaf_vector":"1"}},{"base_weights":[2.805655E-2,-9.4956785E-1,2.233736E-1,-4.098575E-2,-8.5757636E-2,3.1891188E-1,-1.3250019E-2,-4.021084E-1,1.1887859E-2],"categories":[],"categories_nodes":[],"categories_segments":[],"categories_sizes":[],"default_left":[0,0,0,0,0,0,0,0,0],"id":89,"left_children":[1,3,5,-1,-1,-1,7,-1,-1],"loss_changes":[3.0954533E1,1.278225E0,1.9669666E2,0E0,0E0,0E0,2.659185E2,0E0,0E0],"parents":[2147483647,0,0,1,1,2,2,6,6],"right_children":[2,4,6,-1,-1,-1,8,-1,-1],"split_conditions":[5.0357143E1,4.991E1,5.1233334E1,-4.098575E-2,-8.5757636E-2,3.1891188E-1,5.2406944E1,-4.021084E-1,1.1887859E-2],"split_indices":[0,0,0,0,0,0,0,0,0],"split_type":[0,0,0,0,0,0,0,0,0],"sum_hessian":[1.6E2,2.6E1,1.34E2,2.4E1,2E0,4E0,1.3E2,3E0,1.27E2],"tree_param":{"num_deleted":"0","num_feature":"1","num_nodes":"9","size_leaf_vector":"1"}},{"base_weights":[2.5423752E-2,7.441159E-1,-2.3448537E-1,-4.0989935E-1,7.9288597E0,-1.6727651E0,-4.2311754E-2,2.4572184E-2,-4.097088E-1,5.632688E-1,4.1860964E-2,-4.956944E-2,-2.6326647E-1,2.5302708E-1,-1.4601841E-2],"categories":[],"categories_nodes":[],"categories_segments":[],"categories_sizes":[],"default_left":[0,0,0,0,0,0,0,0,0,0,0,0,0,0,0],"id":90,"left_children":[1,3,5,7,9,11,13,-1,-1,-1,-1,-1,-1,-1,-1],"loss_changes":[3.024842E1,3.5977612E2,3.2820755E1,2.706465E2,1.3253662E2,2.905045E1,1.3655473E2,0E0,0E0,0E0,0E0,0E0,0E0,0E0,0E0],"parents":[2147483647,0,0,1,1,2,2,3,3,4,4,5,5,6,6],"right_children":[2,4,6,8,10,12,14,-1,-1,-1,-1,-1,-1,-1,-1],"split_conditions":[5.39E1,5.3379105E1,5.51E1,5.2566666E1,5.3709522E1,5.445E1,5.697778E1,2.4572184E-2,-4.097088E-1,5.632688E-1,4.1860964E-2,-4.956944E-2,-2.6326647E-1,2.5302708E-1,-1.4601841E-2],"split_indices":[0,0,0,0,0,0,0,0,0,0,0,0,0,0,0],"split_type":[0,0,0,0,0,0,0,0,0,0,0,0,0,0,0],"sum_hessian":[1.6E2,4.2E1,1.18E2,3.7E1,5E0,1.3E1,1.05E2,3.4E1,3E0,3E0,2E0,1.2E1,1E0,4E0,1.01E2],"tree_param":{"num_deleted":"0","num_feature":"1","num_nodes":"15","size_leaf_vector":"1"}},{"base_weights":[2.505664E-2,-9.304458E-1,2.1597151E-1,-4.0197894E-2,-8.371814E-2,3.5540812E0,-1.9962862E-1,4.1414704E-2,5.4214615E-1,-4.6965083E-1,-2.2370957E-3],"categories":[],"categories_nodes":[],"categories_segments":[],"categories_sizes":[],"default_left":[0,0,0,0,0,0,0,0,0,0,0],"id":91,"left_children":[1,3,5,-1,-1,7,9,-1,-1,-1,-1],"loss_changes":[2.957051E1,1.1944866E0,1.8799753E2,0E0,0E0,2.8903632E2,1.7187572E2,0E0,0E0,0E0,0E0],"parents":[2147483647,0,0,1,1,2,2,5,5,6,6],"right_children":[2,4,6,-1,-1,8,10,-1,-1,-1,-1],"split_conditions":[5.0357143E1,4.991E1,5.3709522E1,-4.0197894E-2,-8.371814E-2,5.3379105E1,5.3785713E1,4.1414704E-2,5.4214615E-1,-4.6965083E-1,-2.2370957E-3],"split_indices":[0,0,0,0,0,0,0,0,0,0,0],"split_type":[0,0,0,0,0,0,0,0,0,0,0],"sum_hessian":[1.6E2,2.6E1,1.34E2,2.4E1,2E0,1.4E1,1.2E2,1.1E1,3E0,1E0,1.19E2],"tree_param":{"num_deleted":"0","num_feature":"1","num_nodes":"11","size_leaf_vector":"1"}},{"base_weights":[2.372794E-2,-8.885125E-1,2.0600027E-1,-3.8268372E-2,-8.0927536E-2,4.572865E0,-1.0508465E-1,-5.054438E-3,1.0491124E0,-4.7322318E-1,6.0190563E-3],"categories":[],"categories_nodes":[],"categories_segments":[],"categories_sizes":[],"default_left":[0,0,0,0,0,0,0,0,0,0,0],"id":92,"left_children":[1,3,5,-1,-1,7,9,-1,-1,-1,-1],"loss_changes":[2.6953503E1,1.18853E0,1.8387341E2,0E0,0E0,6.9239136E2,2.6913724E2,0E0,0E0,0E0,0E0],"parents":[2147483647,0,0,1,1,2,2,5,5,6,6],"right_children":[2,4,6,-1,-1,8,10,-1,-1,-1,-1],"split_conditions":[5.0357143E1,4.991E1,5.2566666E1,-3.8268372E-2,-8.0927536E-2,5.2406944E1,5.3057896E1,-5.054438E-3,1.0491124E0,-4.7322318E-1,6.0190563E-3],"split_indices":[0,0,0,0,0,0,0,0,0,0,0],"split_type":[0,0,0,0,0,0,0,0,0,0,0],"sum_hessian":[1.6E2,2.6E1,1.34E2,2.4E1,2E0,8E0,1.26E2,7E0,1E0,2E0,1.24E2],"tree_param":{"num_deleted":"0","num_feature":"1","num_nodes":"11","size_leaf_vector":"1"}},{"base_weights":[2.5384124E-2,7.236299E-1,-2.2713648E-1,-3.5523394E-1,7.435829E0,-1.6149839E0,-4.1693073E-2,2.461787E-2,-3.841425E-1,5.2158993E-1,4.8129655E-2,-4.7456156E-2,-2.567794E-1,2.4275456E-1,-1.4066137E-2],"categories":[],"categories_nodes":[],"categories_segments":[],"categories_sizes":[],"default_left":[0,0,0,0,0,0,0,0,0,0,0,0,0,0,0],"id":93,"left_children":[1,3,5,7,9,11,13,-1,-1,-1,-1,-1,-1,-1,-1],"loss_changes":[2.8552116E1,3.1402805E2,3.055936E1,2.39794E2,1.0632013E2,2.7944946E1,1.2574782E2,0E0,0E0,0E0,0E0,0E0,0E0,0E0,0E0],"parents":[2147483647,0,0,1,1,2,2,3,3,4,4,5,5,6,6],"right_children":[2,4,6,8,10,12,14,-1,-1,-1,-1,-1,-1,-1,-1],"split_conditions":[5.39E1,5.3379105E1,5.51E1,5.2566666E1,5.3709522E1,5.445E1,5.697778E1,2.461787E-2,-3.841425E-1,5.2158993E-1,4.8129655E-2,-4.7456156E-2,-2.567794E-1,2.4275456E-1,-1.4066137E-2],"split_indices":[0,0,0,0,0,0,0,0,0,0,0,0,0,0,0],"split_type":[0,0,0,0,0,0,0,0,0,0,0,0,0,0,0],"sum_hessian":[1.6E2,4.2E1,1.18E2,3.7E1,5E0,1.3E1,1.05E2,3.4E1,3E0,3E0,2E0,1.2E1,1E0,4E0,1.01E2],"tree_param":{"num_deleted":"0","num_feature":"1","num_nodes":"15","size_leaf_vector":"1"}},{"base_weights":[2.4951097E-2,6.9233644E-1,-2.1641462E-1,-7.204491E-1,5.4265738E0,-1.5559654E0,-3.7451163E-2,1.0844717E-2,-3.9023742E-1,1.0222691E0,7.4305385E-2,-4.5265846E-2,-2.5035992E-1,2.3304431E-1,-1.33697335E-2],"categories":[],"categories_nodes":[],"categories_segments":[],"categories_sizes":[],"default_left":[0,0,0,0,0,0,0,0,0,0,0,0,0,0,0],"id":94,"left_children":[1,3,5,7,9,11,13,-1,-1,-1,-1,-1,-1,-1,-1],"loss_changes":[2.6084345E1,2.915134E2,2.8469673E1,2.2746715E2,5.6142706E2,2.6904453E1,1.15763626E2,0E0,0E0,0E0,0E0,0E0,0E0,0E0,0E0],"parents":[2147483647,0,0,1,1,2,2,3,3,4,4,5,5,6,6],"right_children":[2,4,6,8,10,12,14,-1,-1,-1,-1,-1,-1,-1,-1],"split_conditions":[5.39E1,5.2406944E1,5.51E1,5.1233334E1,5.2566666E1,5.445E1,5.697778E1,1.0844717E-2,-3.9023742E-1,1.0222691E0,7.4305385E-2,-4.5265846E-2,-2.5035992E-1,2.3304431E-1,-1.33697335E-2],"split_indices":[0,0,0,0,0,0,0,0,0,0,0,0,0,0,0],"split_type":[0,0,0,0,0,0,0,0,0,0,0,0,0,0,0],"sum_hessian":[1.6E2,4.2E1,1.18E2,3.3E1,9E0,1.3E1,1.05E2,3E1,3E0,1E0,8E0,1.2E1,1E0,4E0,1.01E2],"tree_param":{"num_deleted":"0","num_feature":"1","num_nodes":"15","size_leaf_vector":"1"}},{"base_weights":[2.7686093E-2,-8.8265175E-1,2.0954858E-1,-3.8133748E-2,-7.941205E-2,3.0229965E-1,-1.4816091E-2,-3.7560353E-1,1.0979443E-2],"categories":[],"categories_nodes":[],"categories_segments":[],"categories_sizes":[],"default_left":[0,0,0,0,0,0,0,0,0],"id":95,"left_children":[1,3,5,-1,-1,-1,7,-1,-1],"loss_changes":[2.6839521E1,1.0743542E0,1.7687099E2,0E0,0E0,0E0,2.3186809E2,0E0,0E0],"parents":[2147483647,0,0,1,1,2,2,6,6],"right_children":[2,4,6,-1,-1,-1,8,-1,-1],"split_conditions":[5.0357143E1,4.991E1,5.1233334E1,-3.8133748E-2,-7.941205E-2,3.0229965E-1,5.2406944E1,-3.7560353E-1,1.0979443E-2],"split_indices":[0,0,0,0,0,0,0,0,0],"split_type":[0,0,0,0,0,0,0,0,0],"sum_hessian":[1.6E2,2.6E1,1.34E2,2.4E1,2E0,4E0,1.3E2,3E0,1.27E2],"tree_param":{"num_deleted":"0","num_feature":"1","num_nodes":"9","size_leaf_vector":"1"}},{"base_weights":[2.5184635E-2,6.951615E-1,-2.1711949E-1,-3.32515E-1,7.087919E0,-1.5094783E0,-4.438229E-2,2.4570359E-2,-3.7293527E-1,4.9883208E-1,4.3682482E-2,-4.368339E-2,-2.4437538E-1,3.6603376E-1,-9.212321E-3],"categories":[],"categories_nodes":[],"categories_segments":[],"categories_sizes":[],"default_left":[0,0,0,0,0,0,0,0,0,0,0,0,0,0,0],"id":96,"left_children":[1,3,5,7,9,11,13,-1,-1,-1,-1,-1,-1,-1,-1],"loss_changes":[2.6287376E1,2.848534E2,2.6498383E1,2.2677946E2,9.89917E1,2.5798952E1,1.1054017E2,0E0,0E0,0E0,0E0,0E0,0E0,0E0,0E0],"parents":[2147483647,0,0,1,1,2,2,3,3,4,4,5,5,6,6],"right_children":[2,4,6,8,10,12,14,-1,-1,-1,-1,-1,-1,-1,-1],"split_conditions":[5.39E1,5.3379105E1,5.51E1,5.2566666E1,5.3709522E1,5.445E1,5.5425E1,2.4570359E-2,-3.7293527E-1,4.9883208E-1,4.3682482E-2,-4.368339E-2,-2.4437538E-1,3.6603376E-1,-9.212321E-3],"split_indices":[0,0,0,0,0,0,0,0,0,0,0,0,0,0,0],"split_type":[0,0,0,0,0,0,0,0,0,0,0,0,0,0,0],